{"learner":{"attributes":{"scikit_learn":"{\"_estimator_type\": \"classifier\"}"},"feature_names":["trip_seconds","trip_miles","fare","extras","tolls","hour","dayofweek","pickup_area","dropoff_area","company_id"],"feature_types":["float","float","float","float","float","int","int","int","int","int"],"gradient_booster":{"model":{"cats":{"enc":[],"feature_segments":[],"sorted_idx":[]},"gbtree_model_param":{"num_parallel_tree":"1","num_trees":"400"},"iteration_indptr":[0,4,8,12,16,20,24,28,32,36,40,44,48,52,56,60,64,68,72,76,80,84,88,92,96,100,104,108,112,116,120,124,128,132,136,140,144,148,152,156,160,164,168,172,176,180,184,188,192,196,200,204,208,212,216,220,224,228,232,236,240,244,248,252,256,260,264,268,272,276,280,284,288,292,296,300,304,308,312,316,320,324,328,332,336,340,344,348,352,356,360,364,368,372,376,380,384,388,392,396,400],"tree_info":[0,1,2,3,0,1,2,3,0,1,2,3,0,1,2,3,0,1,2,3,0,1,2,3,0,1,2,3,0,1,2,3,0,1,2,3,0,1,2,3,0,1,2,3,0,1,2,3,0,1,2,3,0,1,2,3,0,1,2,3,0,1,2,3,0,1,2,3,0,1,2,3,0,1,2,3,0,1,2,3,0,1,2,3,0,1,2,3,0,1,2,3,0,1,2,3,0,1,2,3,0,1,2,3,0,1,2,3,0,1,2,3,0,1,2,3,0,1,2,3,0,1,2,3,0,1,2,3,0,1,2,3,0,1,2,3,0,1,2,3,0,1,2,3,0,1,2,3,0,1,2,3,0,1,2,3,0,1,2,3,0,1,2,3,0,1,2,3,0,1,2,3,0,1,2,3,0,1,2,3,0,1,2,3,0,1,2,3,0,1,2,3,0,1,2,3,0,1,2,3,0,1,2,3,0,1,2,3,0,1,2,3,0,1,2,3,0,1,2,3,0,1,2,3,0,1,2,3,0,1,2,3,0,1,2,3,0,1,2,3,0,1,2,3,0,1,2,3,0,1,2,3,0,1,2,3,0,1,2,3,0,1,2,3,0,1,2,3,0,1,2,3,0,1,2,3,0,1,2,3,0,1,2,3,0,1,2,3,0,1,2,3,0,1,2,3,0,1,2,3,0,1,2,3,0,1,2,3,0,1,2,3,0,1,2,3,0,1,2,3,0,1,2,3,0,1,2,3,0,1,2,3,0,1,2,3,0,1,2,3,0,1,2,3,0,1,2,3,0,1,2,3,0,1,2,3,0,1,2,3,0,1,2,3,0,1,2,3,0,1,2,3,0,1,2,3,0,1,2,3,0,1,2,3,0,1,2,3,0,1,2,3,0,1,2,3,0,1,2,3],"trees":[{"base_weights":[1.5069362E-6,-3.2214716E-1,4.537889E-1,-4.0726092E-1,1.2858243E-2,1.6533218E-1,6.764868E-1,-1.7357253E-1,-5.114558E-1,-2.1039909E-2,4.7826728E-1,8.685727E-2,3.5886067E-1,7.344987E-1,5.941524E-1,-6.8443155E-1,-1.0688013E-1,-5.573693E-1,6.085981E-2,-6.438113E-1,1.9635756E-3,-7.493175E-4,6.3905245E-1,9.895266E-2,-5.4677707E-1,4.1224748E-1,6.0444005E-2,4.4792044E-1,7.736242E-1,5.4531723E-1,7.7324206E-1,-8.463406E-1,-4.9958453E-1,-8.424942E-2,-7.350101E-1,-4.7653583E-1,-7.0110536E-1,-5.828268E-1,4.5333692E-1,-8.117777E-1,-4.5647058E-1,-5.6267787E-2,2.1724068E-1,1.347878E-1,-5.5714834E-1,-1.6733067E-1,6.6969913E-1,7.4889876E-2,3.4416923E-1,-7.1137923E-1,9.929206E-2,3.3611134E-1,5.673751E-1,-4.470945E-1,1.2031893E-1,1.3338514E-1,5.47344E-1,7.779784E-1,-4.1851196E-2,3.5408428E-1,5.9104335E-1,8.129418E-1,-3.0209988E-1,-8.4961906E-2,-4.2725038E-2,-4.6710923E-2,-8.6163044E-2,-4.2491518E-2,-3.5886622E-3,-6.2099334E-2,-7.85994E-2,-7.839932E-2,-4.114617E-2,5.7612862E-2,-7.132768E-2,-6.71463E-2,-1.02227945E-2,4.8716035E-2,-5.5805057E-2,-8.467764E-2,-7.042386E-2,-4.2662367E-2,-7.447086E-2,7.436253E-3,-3.3689223E-2,-1.1030243E-2,2.526055E-2,-1.3469564E-2,3.854032E-2,6.1158653E-2,-5.9802707E-2,6.241828E-2,-2.5316408E-2,6.9045044E-2,-6.720643E-3,5.3343656E-3,2.3978122E-2,4.2774834E-2,-1.2961448E-3,-8.440101E-2,-4.2433284E-2,2.3873402E-2,-3.0525288E-2,4.474094E-2,2.5325987E-2,4.7579784E-2,7.284098E-2,-7.5559825E-2,6.675481E-2,2.537441E-2,-1.3528479E-4,-9.60567E-3,4.4682536E-2,4.7316518E-2,6.379919E-2,7.3848836E-2,8.575924E-2,1.5504204E-2,-2.7079973E-2,4.4897463E-2,8.552545E-3,6.083834E-2,3.0224944E-2,5.629116E-2,8.408341E-2,-4.2186603E-2,6.779376E-2],"categories":[],"categories_nodes":[],"categories_segments":[],"categories_sizes":[],"default_left":[0,0,0,0,0,0,0,0,0,0,0,0,0,0,0,0,0,0,0,0,0,0,0,0,0,0,0,0,0,0,0,0,0,0,0,0,0,0,0,0,0,0,0,0,0,0,0,0,0,0,0,0,0,0,0,0,0,0,0,0,0,0,0,0,0,0,0,0,0,0,0,0,0,0,0,0,0,0,0,0,0,0,0,0,0,0,0,0,0,0,0,0,0,0,0,0,0,0,0,0,0,0,0,0,0,0,0,0,0,0,0,0,0,0,0,0,0,0,0,0,0,0,0,0,0,0,0],"id":0,"left_children":[1,3,5,7,9,11,13,15,17,19,21,23,25,27,29,31,33,35,37,39,41,43,45,47,49,51,53,55,57,59,61,63,65,67,69,71,73,75,77,79,81,83,85,87,89,91,93,95,97,99,101,103,105,107,109,111,113,115,117,119,121,123,125,-1,-1,-1,-1,-1,-1,-1,-1,-1,-1,-1,-1,-1,-1,-1,-1,-1,-1,-1,-1,-1,-1,-1,-1,-1,-1,-1,-1,-1,-1,-1,-1,-1,-1,-1,-1,-1,-1,-1,-1,-1,-1,-1,-1,-1,-1,-1,-1,-1,-1,-1,-1,-1,-1,-1,-1,-1,-1,-1,-1,-1,-1,-1,-1],"loss_changes":[3.753358E4,4.2814404E3,6.8474883E3,2.9153262E3,4.799529E2,7.0530054E2,2.8688477E2,1.2579596E3,2.176045E3,4.0624124E2,1.5907205E2,2.5331279E2,2.1343726E2,3.9529297E2,2.1708789E2,1.2718152E2,4.6422696E2,8.903574E2,1.5541824E3,3.1414917E1,3.42842E2,3.9292236E1,3.8326355E1,1.9131195E2,6.591171E1,1.340426E2,6.1878464E1,1.32555E2,1.10265625E2,1.7069678E2,2.2762744E2,2.7578125E0,2.3033203E1,5.194117E2,6.1137695E0,9.814414E2,4.2934668E2,9.919751E1,1.3100446E2,1.4034119E0,3.8100662E0,7.8913275E2,6.747525E1,2.8348038E1,5.2417755E0,4.0588126E0,2.2829773E1,1.0490263E2,8.6488556E1,1.843161E1,7.2137957E0,7.0208374E1,5.4810547E1,7.439991E1,2.9555468E1,7.339282E1,2.1364319E1,9.645703E1,7.517558E0,9.613812E1,7.879541E1,3.5350586E1,2.2630013E1,0E0,0E0,0E0,0E0,0E0,0E0,0E0,0E0,0E0,0E0,0E0,0E0,0E0,0E0,0E0,0E0,0E0,0E0,0E0,0E0,0E0,0E0,0E0,0E0,0E0,0E0,0E0,0E0,0E0,0E0,0E0,0E0,0E0,0E0,0E0,0E0,0E0,0E0,0E0,0E0,0E0,0E0,0E0,0E0,0E0,0E0,0E0,0E0,0E0,0E0,0E0,0E0,0E0,0E0,0E0,0E0,0E0,0E0,0E0,0E0,0E0,0E0,0E0,0E0],"parents":[2147483647,0,0,1,1,2,2,3,3,4,4,5,5,6,6,7,7,8,8,9,9,10,10,11,11,12,12,13,13,14,14,15,15,16,16,17,17,18,18,19,19,20,20,21,21,22,22,23,23,24,24,25,25,26,26,27,27,28,28,29,29,30,30,31,31,32,32,33,33,34,34,35,35,36,36,37,37,38,38,39,39,40,40,41,41,42,42,43,43,44,44,45,45,46,46,47,47,48,48,49,49,50,50,51,51,52,52,53,53,54,54,55,55,56,56,57,57,58,58,59,59,60,60,61,61,62,62],"right_children":[2,4,6,8,10,12,14,16,18,20,22,24,26,28,30,32,34,36,38,40,42,44,46,48,50,52,54,56,58,60,62,64,66,68,70,72,74,76,78,80,82,84,86,88,90,92,94,96,98,100,102,104,106,108,110,112,114,116,118,120,122,124,126,-1,-1,-1,-1,-1,-1,-1,-1,-1,-1,-1,-1,-1,-1,-1,-1,-1,-1,-1,-1,-1,-1,-1,-1,-1,-1,-1,-1,-1,-1,-1,-1,-1,-1,-1,-1,-1,-1,-1,-1,-1,-1,-1,-1,-1,-1,-1,-1,-1,-1,-1,-1,-1,-1,-1,-1,-1,-1,-1,-1,-1,-1,-1,-1],"split_conditions":[1E0,3E1,3.025E1,9E0,4.125E1,4E0,5E0,4.2E-1,1.683E1,4.5E0,7.5E1,4.1E1,4.2E1,3.5E0,2.2E1,2E-1,3.3E1,2.25E1,7.5E1,4E0,3.2E1,6.875E1,7E0,3.2E1,2E0,8.9E0,6.25E0,5.5E1,7.45E1,2E0,1E0,8.25E0,3.3E1,7E0,3.3E1,1.7E0,1.2E-1,1.9E1,3.4E1,3.75E0,3.3E1,3.1E1,7E-1,3.1E1,1.638E3,9.3E-1,6.05E1,3.2E1,3.2E1,7.5E1,3.5E1,4.5E0,2.1E1,1E1,4.5E0,2E0,3.1E1,3E1,8.475E1,4.7E1,8.5E0,7E0,3.1E1,-8.4961906E-2,-4.2725038E-2,-4.6710923E-2,-8.6163044E-2,-4.2491518E-2,-3.5886622E-3,-6.2099334E-2,-7.85994E-2,-7.839932E-2,-4.114617E-2,5.7612862E-2,-7.132768E-2,-6.71463E-2,-1.02227945E-2,4.8716035E-2,-5.5805057E-2,-8.467764E-2,-7.042386E-2,-4.2662367E-2,-7.447086E-2,7.436253E-3,-3.3689223E-2,-1.1030243E-2,2.526055E-2,-1.3469564E-2,3.854032E-2,6.1158653E-2,-5.9802707E-2,6.241828E-2,-2.5316408E-2,6.9045044E-2,-6.720643E-3,5.3343656E-3,2.3978122E-2,4.2774834E-2,-1.2961448E-3,-8.440101E-2,-4.2433284E-2,2.3873402E-2,-3.0525288E-2,4.474094E-2,2.5325987E-2,4.7579784E-2,7.284098E-2,-7.5559825E-2,6.675481E-2,2.537441E-2,-1.3528479E-4,-9.60567E-3,4.4682536E-2,4.7316518E-2,6.379919E-2,7.3848836E-2,8.575924E-2,1.5504204E-2,-2.7079973E-2,4.4897463E-2,8.552545E-3,6.083834E-2,3.0224944E-2,5.629116E-2,8.408341E-2,-4.2186603E-2,6.779376E-2],"split_indices":[3,9,2,2,2,3,3,1,1,2,8,7,8,3,3,1,7,2,8,2,9,2,7,7,3,1,2,8,2,8,8,2,8,7,8,1,1,9,7,2,8,9,1,9,0,1,2,8,8,7,8,3,8,3,3,3,7,9,2,2,3,5,9,0,0,0,0,0,0,0,0,0,0,0,0,0,0,0,0,0,0,0,0,0,0,0,0,0,0,0,0,0,0,0,0,0,0,0,0,0,0,0,0,0,0,0,0,0,0,0,0,0,0,0,0,0,0,0,0,0,0,0,0,0,0,0,0],"split_type":[0,0,0,0,0,0,0,0,0,0,0,0,0,0,0,0,0,0,0,0,0,0,0,0,0,0,0,0,0,0,0,0,0,0,0,0,0,0,0,0,0,0,0,0,0,0,0,0,0,0,0,0,0,0,0,0,0,0,0,0,0,0,0,0,0,0,0,0,0,0,0,0,0,0,0,0,0,0,0,0,0,0,0,0,0,0,0,0,0,0,0,0,0,0,0,0,0,0,0,0,0,0,0,0,0,0,0,0,0,0,0,0,0,0,0,0,0,0,0,0,0,0,0,0,0,0,0],"sum_hessian":[2.5674842E5,1.5015327E5,1.06595164E5,1.1973289E5,3.042037E4,4.6441727E4,6.0153438E4,3.6923496E4,8.28094E4,2.835601E4,2.0643604E3,3.3043992E4,1.3397737E4,3.528447E4,2.4868967E4,4.262649E3,3.2660848E4,7.6659484E4,6.1499097E3,1.00912286E3,2.7346887E4,5.190335E2,1.5453267E3,3.242586E4,6.181307E2,1.1364283E4,2.0334537E3,4.240082E3,3.1044387E4,1.9543723E4,5.3252446E3,2.2704038E3,1.992245E3,3.1526137E4,1.1347113E3,4.906878E4,2.7590705E4,2.3292734E3,3.8206362E3,5.303169E2,4.78806E2,2.1525174E4,5.821712E3,4.179741E2,1.0105946E2,5.6416687E1,1.48891E3,2.9529477E4,2.8963838E3,4.9254224E2,1.25588455E2,7.6250835E3,3.7392E3,2.1389284E2,1.8195609E3,1.01893445E3,3.2211477E3,3.0879553E4,1.6483485E2,3.77305E3,1.5770672E4,5.135881E3,1.8936385E2,2.2517617E3,1.8642036E1,1.8303536E3,1.6189137E2,3.9182617E3,2.7607875E4,3.5468927E2,7.8002203E2,8.56945E3,4.0499332E4,2.6000735E2,2.7330697E4,1.9662443E3,3.630291E2,3.6975007E3,1.2313556E2,3.949168E2,1.3540005E2,4.3612552E2,4.268045E1,1.4688453E4,6.8367217E3,5.6711035E2,5.2546016E3,2.0162834E2,2.1634573E2,2.9434795E0,9.811598E1,4.905799E0,5.151089E1,1.4481919E3,4.0718132E1,2.6117984E4,3.4114927E3,2.3469343E3,5.4944946E2,3.3555664E2,1.5698557E2,9.370076E1,3.1887693E1,3.2520542E3,4.3730293E3,2.3861807E3,1.3530194E3,1.6777832E2,4.611451E1,8.673453E2,9.522156E2,5.8869586E2,4.302386E2,1.7749181E3,1.4462296E3,2.0648018E4,1.0231534E4,8.879496E1,7.603989E1,2.787475E3,9.85575E2,1.4876345E4,8.9432715E2,5.1756177E2,4.6183193E3,1.6925006E2,2.0113775E1],"tree_param":{"num_deleted":"0","num_feature":"10","num_nodes":"127","size_leaf_vector":"1"}},{"base_weights":[6.743507E-7,4.675082E-1,-1.7387782E-1,1.2035319E0,4.0240836E-1,-1.9566399E-1,3.0315238E-1,1.3970404E0,9.2073077E-1,5.9088653E-1,3.2660702E-1,-8.425417E-2,-3.015389E-1,1.00306E0,-7.614544E-2,1.46637E0,-1.0833455E-1,9.911603E-1,6.6388136E-1,6.156856E-1,1.5263233E-1,3.6730367E-1,2.2387128E-1,-1.8209833E-1,2.0247978E-1,-1.2087594E-1,-3.351244E-1,1.5835606E-1,1.1511657E0,8.0825426E-2,-3.847714E-1,1.5187765E0,1.2720772E0,4.369285E-1,-2.358682E-1,9.5838004E-1,1.3730596E0,7.062032E-1,-3.2466328E-1,8.9204973E-1,5.822125E-1,-5.7396495E-1,4.7953874E-1,4.4261336E-1,2.9871708E-1,2.325727E-2,3.1147513E-1,-2.6476794E-1,1.488334E-1,3.2243595E-1,1.4711195E-1,-3.5457306E-2,-3.4193465E-1,-3.559125E-1,-7.463713E-2,-4.6955228E-2,9.627124E-1,1.4161096E0,5.049444E-1,-3.3399522E-2,5.541609E-1,-4.1200417E-1,7.489852E-1,1.5339985E-1,1.3627432E-1,1.4703679E-1,1.218521E-1,2.5784735E-2,1.2140977E-1,-3.0691355E-2,5.93403E-2,1.0387503E-1,7.8962624E-2,1.4569952E-1,9.887996E-2,6.521303E-2,1.3810061E-1,7.558458E-2,-5.110835E-2,1.484863E-1,8.495601E-2,6.544598E-2,5.2269787E-2,4.0066797E-2,-6.989338E-2,3.765338E-2,1.2662135E-1,4.302359E-2,9.304308E-2,2.8630564E-2,6.674683E-2,-5.921623E-2,2.1092774E-2,2.5026811E-2,3.8583826E-2,-5.1351305E-2,-1.9328183E-2,4.6061672E-2,-1.979476E-2,4.124171E-2,2.0646999E-2,1.1245103E-2,2.667349E-2,-7.442503E-3,4.5368984E-2,2.7781462E-3,-3.809487E-2,-4.5486756E-2,-3.1762432E-2,-1.2325584E-2,6.1021544E-2,-2.2353055E-2,4.3941833E-2,1.2621656E-1,4.4984173E-2,2.1711823E-2,1.4494607E-1,2.0071669E-2,1.0116106E-1,2.4312316E-2,-1.903722E-2,3.3549387E-2,8.494433E-2,-4.208798E-2,1.680556E-2,9.268397E-2,-2.9559448E-2],"categories":[],"categories_nodes":[],"categories_segments":[],"categories_sizes":[],"default_left":[0,0,0,0,0,0,0,0,0,0,0,0,0,0,0,0,0,0,0,0,0,0,0,0,0,0,0,0,0,0,0,0,0,0,0,0,0,0,0,0,0,0,0,0,0,0,0,0,0,0,0,0,0,0,0,0,0,0,0,0,0,0,0,0,0,0,0,0,0,0,0,0,0,0,0,0,0,0,0,0,0,0,0,0,0,0,0,0,0,0,0,0,0,0,0,0,0,0,0,0,0,0,0,0,0,0,0,0,0,0,0,0,0,0,0,0,0,0,0,0,0,0,0,0,0,0,0],"id":1,"left_children":[1,3,5,7,9,11,13,15,17,19,21,23,25,27,29,31,33,35,37,39,41,43,45,47,49,51,53,55,57,59,61,63,65,67,69,71,73,75,77,79,81,83,85,87,89,91,93,95,97,99,101,103,105,107,109,111,113,115,117,119,121,123,125,-1,-1,-1,-1,-1,-1,-1,-1,-1,-1,-1,-1,-1,-1,-1,-1,-1,-1,-1,-1,-1,-1,-1,-1,-1,-1,-1,-1,-1,-1,-1,-1,-1,-1,-1,-1,-1,-1,-1,-1,-1,-1,-1,-1,-1,-1,-1,-1,-1,-1,-1,-1,-1,-1,-1,-1,-1,-1,-1,-1,-1,-1,-1,-1],"loss_changes":[1.8512818E4,2.9577754E3,1.7252383E3,2.7323877E2,8.1021875E2,1.8725127E3,1.9249053E3,3.1081152E2,3.6262573E1,1.7671729E2,1.690669E2,2.1702366E3,4.938457E2,3.1863086E2,2.2787901E2,2.7041992E1,9.280818E0,1.8710693E1,1.8731247E1,1.4191455E2,2.0754327E2,1.4953662E2,2.017749E2,1.5778992E3,1.3066797E2,2.4095273E2,3.716421E2,6.3017475E1,3.7047876E2,1.6861986E2,4.927083E1,3.2202148E0,4.6932373E0,3.2176075E0,6.522123E0,1.9206299E1,2.563446E0,1.4585083E1,4.1814265E0,4.05896E1,5.872168E1,3.331511E1,4.833438E1,8.297827E1,6.922888E1,4.0330792E2,3.6277588E1,8.2047925E2,1.2465571E3,6.476123E1,5.580954E1,1.7550253E2,5.131122E1,2.4068555E2,1.690206E2,2.6269146E1,1.1347931E1,6.114917E1,9.720903E1,1.0913138E2,3.886226E1,8.046875E0,7.2505703E0,0E0,0E0,0E0,0E0,0E0,0E0,0E0,0E0,0E0,0E0,0E0,0E0,0E0,0E0,0E0,0E0,0E0,0E0,0E0,0E0,0E0,0E0,0E0,0E0,0E0,0E0,0E0,0E0,0E0,0E0,0E0,0E0,0E0,0E0,0E0,0E0,0E0,0E0,0E0,0E0,0E0,0E0,0E0,0E0,0E0,0E0,0E0,0E0,0E0,0E0,0E0,0E0,0E0,0E0,0E0,0E0,0E0,0E0,0E0,0E0,0E0,0E0,0E0,0E0],"parents":[2147483647,0,0,1,1,2,2,3,3,4,4,5,5,6,6,7,7,8,8,9,9,10,10,11,11,12,12,13,13,14,14,15,15,16,16,17,17,18,18,19,19,20,20,21,21,22,22,23,23,24,24,25,25,26,26,27,27,28,28,29,29,30,30,31,31,32,32,33,33,34,34,35,35,36,36,37,37,38,38,39,39,40,40,41,41,42,42,43,43,44,44,45,45,46,46,47,47,48,48,49,49,50,50,51,51,52,52,53,53,54,54,55,55,56,56,57,57,58,58,59,59,60,60,61,61,62,62],"right_children":[2,4,6,8,10,12,14,16,18,20,22,24,26,28,30,32,34,36,38,40,42,44,46,48,50,52,54,56,58,60,62,64,66,68,70,72,74,76,78,80,82,84,86,88,90,92,94,96,98,100,102,104,106,108,110,112,114,116,118,120,122,124,126,-1,-1,-1,-1,-1,-1,-1,-1,-1,-1,-1,-1,-1,-1,-1,-1,-1,-1,-1,-1,-1,-1,-1,-1,-1,-1,-1,-1,-1,-1,-1,-1,-1,-1,-1,-1,-1,-1,-1,-1,-1,-1,-1,-1,-1,-1,-1,-1,-1,-1,-1,-1,-1,-1,-1,-1,-1,-1,-1,-1,-1,-1,-1,-1],"split_conditions":[9E0,4.5E0,5.3E1,4E0,8.1E-1,2.5E1,1E0,7E0,1E0,8E0,8E0,5E-1,2E0,1.8E1,2.7E1,3.75E0,1E1,3.5E1,2.5E1,4.2E-1,4.2E2,2.7E1,5.37E2,3E1,2.63E0,1.95E1,5.5E0,4.289E3,1.9E1,7.45E1,8E0,1E0,6E1,3.2E1,2.31E0,3E1,7.6E1,4.1E1,0E0,1E-1,6.4E-1,1.2E-1,8.03E2,8E0,5.9E1,1.6E0,6.35E2,5.88E2,3.1E1,3.1E1,5E0,4.725E1,6E0,3.225E1,1.2E1,2.234E1,7E1,9.9E1,6.875E1,2.7E1,8.475E1,5.441E3,3.1E1,1.5339985E-1,1.3627432E-1,1.4703679E-1,1.218521E-1,2.5784735E-2,1.2140977E-1,-3.0691355E-2,5.93403E-2,1.0387503E-1,7.8962624E-2,1.4569952E-1,9.887996E-2,6.521303E-2,1.3810061E-1,7.558458E-2,-5.110835E-2,1.484863E-1,8.495601E-2,6.544598E-2,5.2269787E-2,4.0066797E-2,-6.989338E-2,3.765338E-2,1.2662135E-1,4.302359E-2,9.304308E-2,2.8630564E-2,6.674683E-2,-5.921623E-2,2.1092774E-2,2.5026811E-2,3.8583826E-2,-5.1351305E-2,-1.9328183E-2,4.6061672E-2,-1.979476E-2,4.124171E-2,2.0646999E-2,1.1245103E-2,2.667349E-2,-7.442503E-3,4.5368984E-2,2.7781462E-3,-3.809487E-2,-4.5486756E-2,-3.1762432E-2,-1.2325584E-2,6.1021544E-2,-2.2353055E-2,4.3941833E-2,1.2621656E-1,4.4984173E-2,2.1711823E-2,1.4494607E-1,2.0071669E-2,1.0116106E-1,2.4312316E-2,-1.903722E-2,3.3549387E-2,8.494433E-2,-4.208798E-2,1.680556E-2,9.268397E-2,-2.9559448E-2],"split_indices":[2,2,2,2,1,2,3,3,3,2,2,3,8,9,3,2,3,7,3,1,0,7,0,9,1,3,3,0,9,2,8,3,0,7,1,7,7,8,8,1,1,1,0,7,7,1,0,0,9,7,3,2,5,2,3,1,8,0,2,8,2,0,9,0,0,0,0,0,0,0,0,0,0,0,0,0,0,0,0,0,0,0,0,0,0,0,0,0,0,0,0,0,0,0,0,0,0,0,0,0,0,0,0,0,0,0,0,0,0,0,0,0,0,0,0,0,0,0,0,0,0,0,0,0,0,0,0],"split_type":[0,0,0,0,0,0,0,0,0,0,0,0,0,0,0,0,0,0,0,0,0,0,0,0,0,0,0,0,0,0,0,0,0,0,0,0,0,0,0,0,0,0,0,0,0,0,0,0,0,0,0,0,0,0,0,0,0,0,0,0,0,0,0,0,0,0,0,0,0,0,0,0,0,0,0,0,0,0,0,0,0,0,0,0,0,0,0,0,0,0,0,0,0,0,0,0,0,0,0,0,0,0,0,0,0,0,0,0,0,0,0,0,0,0,0,0,0,0,0,0,0,0,0,0,0,0,0],"sum_hessian":[2.2773733E5,6.1738684E4,1.6599864E5,5.0155063E3,5.6723176E4,1.587491E5,7.2495522E3,2.9755366E3,2.0399701E3,1.6267543E4,4.0455637E4,7.735351E4,8.1395586E4,2.5473518E3,4.7022007E3,2.8445571E3,1.3097931E2,1.5987308E3,4.4123926E2,1.5395943E4,8.7159985E2,2.8975146E4,1.1480488E4,5.767354E4,1.9679967E4,1.2760257E4,6.8635336E4,3.8031866E2,2.167033E3,3.1173945E3,1.584806E3,2.234916E3,6.0964124E2,2.4368242E1,1.0661106E2,1.4755841E3,1.2314666E2,4.2339822E2,1.7841036E1,1.6605217E3,1.3735421E4,2.702264E2,6.013734E2,1.3808091E4,1.5167056E4,3.4898806E3,7.990608E3,4.6146055E4,1.1527484E4,6.213467E3,1.34665E4,9.204669E3,3.5555876E3,6.3562387E4,5.072946E3,3.0373276E2,7.658591E1,1.5360696E3,6.3096344E2,2.5121047E3,6.0528973E2,1.5482538E3,3.6552364E1,2.0282211E3,2.0669492E2,1.2401695E2,4.8562427E2,2.0887066E1,3.4811776E0,9.877841E1,7.8326497E0,9.9605194E2,4.795322E2,9.877841E1,2.4368242E1,3.9380823E2,2.959001E1,2.175736E0,1.5665299E1,1.087868E2,1.5517349E3,6.199542E3,7.535879E3,3.0460304E1,2.397661E2,5.330553E2,6.831811E1,1.3468241E4,3.3984995E2,1.4674904E4,4.921515E2,8.150307E2,2.6748499E3,4.3854136E3,3.6051946E3,1.0299935E4,3.584612E4,6.069868E3,5.457616E3,3.497278E3,2.7161887E3,1.0442662E4,3.023838E3,8.526274E3,6.783945E2,3.3941483E2,3.2161729E3,1.7729637E4,4.583275E4,4.7374478E3,3.3549847E2,2.2323051E2,8.050223E1,4.7431046E1,2.9154861E1,4.177413E1,1.4942955E3,3.9511365E2,2.3584978E2,9.0945764E2,1.6026471E3,3.4898804E2,2.563017E2,1.5251909E3,2.3062801E1,3.1330599E1,5.2217665E0],"tree_param":{"num_deleted":"0","num_feature":"10","num_nodes":"127","size_leaf_vector":"1"}},{"base_weights":[-1.8157061E-6,3.120871E-1,-4.3322048E-1,-4.5365554E-1,5.9105676E-1,-3.8049367E-1,-5.4067814E-1,-4.220985E-1,-5.4064476E-1,2.2038229E0,3.4110495E-1,-4.8723152E-1,-3.5709012E-1,-5.8041554E-2,-4.9082062E-1,-5.1532334E-1,-3.8623747E-1,-5.8026146E-2,-4.968435E-1,3.029301E0,9.415388E-1,7.213911E-1,-2.3716436E-1,-5.143915E-1,-4.7144973E-1,-4.1878656E-1,-3.0891907E-1,-3.322167E-1,-5.779267E-2,-5.632975E-1,-4.734028E-1,-5.0568885E-1,-3.7045902E-1,-3.7162045E-1,-5.7807185E-2,3.27509E0,-1.0290843E-1,-1.8124926E-1,1.4657925E0,9.3921214E-1,-1.8247196E-2,-3.6163136E-1,8.2881846E-2,-5.150683E-1,-2.447994E-1,-4.3001822E-1,-4.9073476E-1,-4.476018E-1,-3.8058764E-1,-1.734476E-1,-3.3513448E-1,-4.80954E-1,-3.0653763E-1,-5.7500202E-2,-5.403346E-2,-5.0737627E-2,-4.597747E-2,-4.2847652E-2,-5.1838167E-2,-3.6232293E-2,-5.6257553E-2,-4.8743673E-2,-3.1746168E-2,1.13860406E-1,3.4113997E-1,5.2445587E-2,-4.084201E-2,1.3161644E-2,-2.8532041E-2,3.221475E-1,7.694675E-2,6.243014E-2,1.4727655E-1,-5.803135E-2,7.081845E-2,1.9514967E-3,-5.281589E-2,3.6734294E-2,-2.9049743E-2,-5.1042836E-2,-5.4318357E-2,3.0607788E-2,-4.7999043E-2,-4.1151665E-2,-5.182093E-2,-5.2773364E-2,-4.7878306E-2,-4.4070717E-2,-5.257959E-2,-2.3596337E-2,-3.981446E-2,-2.0986365E-2,-1.0804852E-2,-2.9322658E-2,-3.7963897E-2,-4.104898E-2,-5.143514E-2,-3.707182E-2,-2.2765882E-2],"categories":[],"categories_nodes":[],"categories_segments":[],"categories_sizes":[],"default_left":[0,0,0,0,0,0,0,0,0,0,0,0,0,0,0,0,0,0,0,0,0,0,0,0,0,0,0,0,0,1,0,0,0,0,0,0,0,0,0,0,0,0,0,0,0,0,0,0,0,0,0,0,0,0,0,0,0,0,0,0,0,0,0,0,0,0,0,0,0,0,0,0,0,0,0,0,0,0,0,0,0,0,0,0,0,0,0,0,0,0,0,0,0,0,0,0,0,0,0],"id":2,"left_children":[1,3,5,7,9,11,13,15,17,19,21,23,25,-1,27,29,31,-1,33,35,37,39,41,43,45,47,49,51,-1,53,55,57,59,61,-1,63,65,67,69,71,73,75,77,79,81,83,85,87,89,91,93,95,97,-1,-1,-1,-1,-1,-1,-1,-1,-1,-1,-1,-1,-1,-1,-1,-1,-1,-1,-1,-1,-1,-1,-1,-1,-1,-1,-1,-1,-1,-1,-1,-1,-1,-1,-1,-1,-1,-1,-1,-1,-1,-1,-1,-1,-1,-1],"loss_changes":[1.6900078E4,1.5521087E4,2.9635645E2,5.303296E1,2.146728E4,8.754639E1,3.384424E1,4.7413086E1,8.667969E0,7.4431836E3,1.0140232E4,2.4631348E0,8.547778E1,0E0,1.05451904E2,7.684204E0,1.9205444E1,0E0,2.4788452E1,3.3262188E3,1.6642505E3,4.4816475E3,7.2877905E2,2.9516602E-1,2.9885254E0,1.3727783E1,5.7401367E1,1.0215515E1,0E0,1.8341064E-1,7.4645996E-1,9.5181274E-1,1.4008545E1,5.929245E0,0E0,1.1626914E3,6.06482E1,2.9364344E1,2.353579E3,3.6096973E3,2.5847285E3,8.360426E2,5.442617E2,2.3071289E-2,1.1429027E0,1.8752594E0,9.524536E-1,3.6452637E0,1.3708801E1,6.229721E0,2.51698E1,7.247925E-1,1.1642883E1,0E0,0E0,0E0,0E0,0E0,0E0,0E0,0E0,0E0,0E0,0E0,0E0,0E0,0E0,0E0,0E0,0E0,0E0,0E0,0E0,0E0,0E0,0E0,0E0,0E0,0E0,0E0,0E0,0E0,0E0,0E0,0E0,0E0,0E0,0E0,0E0,0E0,0E0,0E0,0E0,0E0,0E0,0E0,0E0,0E0,0E0],"parents":[2147483647,0,0,1,1,2,2,3,3,4,4,5,5,6,6,7,7,8,8,9,9,10,10,11,11,12,12,14,14,15,15,16,16,18,18,19,19,20,20,21,21,22,22,23,23,24,24,25,25,26,26,27,27,29,29,30,30,31,31,32,32,33,33,35,35,36,36,37,37,38,38,39,39,40,40,41,41,42,42,43,43,44,44,45,45,46,46,47,47,48,48,49,49,50,50,51,51,52,52],"right_children":[2,4,6,8,10,12,14,16,18,20,22,24,26,-1,28,30,32,-1,34,36,38,40,42,44,46,48,50,52,-1,54,56,58,60,62,-1,64,66,68,70,72,74,76,78,80,82,84,86,88,90,92,94,96,98,-1,-1,-1,-1,-1,-1,-1,-1,-1,-1,-1,-1,-1,-1,-1,-1,-1,-1,-1,-1,-1,-1,-1,-1,-1,-1,-1,-1,-1,-1,-1,-1,-1,-1,-1,-1,-1,-1,-1,-1,-1,-1,-1,-1,-1,-1],"split_conditions":[5E-1,8E0,3E1,3E1,5.4E2,2E0,3.1E1,6.4E-1,3.1E1,1.7E0,2.25E1,1.035E1,1.02E1,-5.8041554E-2,3.2E1,4E-1,7E0,-5.8026146E-2,3.2E1,1.5E1,9E0,3E1,1.9E1,4.2E1,5.5E0,1.7E1,7E0,0E0,-5.779267E-2,1.2E2,4.75E0,1.6E1,3.3E1,7E-1,-5.7807185E-2,3E-1,2.5E1,1.8E1,2.2E0,1.9E1,3.1E1,1.8E1,3E1,6E0,1.5E1,1.86E1,1.7E1,4.1E1,7E0,2.1E1,2.8E1,2E0,1.6E1,-5.7500202E-2,-5.403346E-2,-5.0737627E-2,-4.597747E-2,-4.2847652E-2,-5.1838167E-2,-3.6232293E-2,-5.6257553E-2,-4.8743673E-2,-3.1746168E-2,1.13860406E-1,3.4113997E-1,5.2445587E-2,-4.084201E-2,1.3161644E-2,-2.8532041E-2,3.221475E-1,7.694675E-2,6.243014E-2,1.4727655E-1,-5.803135E-2,7.081845E-2,1.9514967E-3,-5.281589E-2,3.6734294E-2,-2.9049743E-2,-5.1042836E-2,-5.4318357E-2,3.0607788E-2,-4.7999043E-2,-4.1151665E-2,-5.182093E-2,-5.2773364E-2,-4.7878306E-2,-4.4070717E-2,-5.257959E-2,-2.3596337E-2,-3.981446E-2,-2.0986365E-2,-1.0804852E-2,-2.9322658E-2,-3.7963897E-2,-4.104898E-2,-5.143514E-2,-3.707182E-2,-2.2765882E-2],"split_indices":[3,2,9,9,0,8,9,1,9,1,2,1,1,0,9,1,8,0,9,2,2,9,9,3,3,5,8,8,0,0,2,9,8,1,0,1,2,9,1,9,9,9,9,6,5,1,9,8,8,9,8,6,5,0,0,0,0,0,0,0,0,0,0,0,0,0,0,0,0,0,0,0,0,0,0,0,0,0,0,0,0,0,0,0,0,0,0,0,0,0,0,0,0,0,0,0,0,0,0],"split_type":[0,0,0,0,0,0,0,0,0,0,0,0,0,0,0,0,0,0,0,0,0,0,0,0,0,0,0,0,0,0,0,0,0,0,0,0,0,0,0,0,0,0,0,0,0,0,0,0,0,0,0,0,0,0,0,0,0,0,0,0,0,0,0,0,0,0,0,0,0,0,0,0,0,0,0,0,0,0,0,0,0,0,0,0,0,0,0,0,0,0,0,0,0,0,0,0,0,0,0],"sum_hessian":[1.2499605E5,7.265556E4,5.2340484E4,1.9401057E4,5.3254508E4,3.5114977E4,1.7225508E4,1.4240785E4,5.1602725E3,7.1449927E3,4.6109516E4,6.311219E3,2.8803758E4,9.579678E3,7.64583E3,3.952483E3,1.0288302E4,2.7031362E3,2.457136E3,4.3190947E3,2.8258975E3,2.7816414E4,1.8293102E4,2.307864E3,4.003355E3,1.2625543E4,1.6178216E4,2.712212E3,4.9336177E3,1.8373589E3,2.115124E3,1.196803E3,9.091499E3,9.689542E2,1.4881819E3,4.0047878E3,3.1430707E2,8.99692E2,1.9262056E3,2.1487998E4,6.328415E3,1.3170804E4,5.1222974E3,2.3011768E3,6.6873846E0,1.2789623E3,2.7243926E3,7.19061E3,5.4349326E3,2.6243208E3,1.35538955E4,3.967052E2,2.3155068E3,1.201102E3,6.3625684E2,5.951772E2,1.5199469E3,1.73872E2,1.02293097E3,8.724887E3,3.6661197E2,3.0618668E2,6.627676E2,2.4074583E2,3.764042E3,1.0269912E2,2.1160794E2,2.2450505E2,6.75187E2,5.459772E2,1.3802284E3,1.351401E4,7.9739893E3,3.5679585E3,2.7604568E3,4.0050266E3,9.165776E3,2.9073403E3,2.2149573E3,1.9916464E3,3.0953036E2,1.9106812E0,4.776703E0,1.0618611E3,2.1710115E2,6.5464716E2,2.0697454E3,6.614062E3,5.765481E2,5.8992285E2,4.84501E3,1.6842655E3,9.400552E2,6.984495E3,6.5694E3,1.31837E2,2.648682E2,1.2746632E3,1.0408436E3],"tree_param":{"num_deleted":"0","num_feature":"10","num_nodes":"99","size_leaf_vector":"1"}},{"base_weights":[-2.8276438E-6,4.6587127E-1,-4.3668264E-1,-1.6894689E-1,1.1953776E0,-2.3229155E-1,-4.8581517E-1,-3.1120723E-1,7.602474E-1,1.6891321E0,-2.2318324E-1,-3.2201606E-1,4.4782954E-1,-4.1788983E-1,-5.546837E-1,-4.8783442E-1,-5.062501E-3,1.8383278E0,-2.943106E-1,3.5810104E-1,2.7343743E0,3.599301E-1,-4.943605E-1,-3.7116015E-1,1.0045099E0,1.2326518E0,-3.930833E-1,-5.07743E-1,2.6073085E-2,-5.3909385E-1,-5.602022E-1,-5.0551784E-1,-3.6700198E-1,1.5367059E0,-5.492128E-1,2.547013E0,-3.5850558E-1,2.4784592E-1,-5.338708E-1,1.9152966E-1,1.7719122E0,3.2984421E0,-1.4596568E-1,-1.901098E-2,3.4773793E0,-1.3523857E-1,-5.246433E-1,-2.5312153E-1,-5.186946E-1,3.4508076E-2,2.6640708E0,1.7227653E0,-4.577469E-1,-2.731761E-2,-5.318621E-1,-5.172047E-1,-2.560926E-1,4.0733212E-1,-4.3668056E-1,-5.4366726E-1,2.8503123E-1,-5.6026567E-2,-3.135076E-1,-5.0736766E-2,1.2431225E-3,-3.1012615E-2,-5.260104E-2,2.9618043E-2,2.5187948E-1,-2.4217894E-2,-5.5876244E-2,1.7806785E-1,3.65081E-1,1.5462965E-2,-5.1998656E-2,-1.6037254E-2,1.4912479E-1,-1.4601651E-2,-5.399983E-2,8.081048E-2,-5.686116E-3,2.7664885E-2,2.5284392E-1,1.9873399E-1,3.7095258E-1,7.710359E-2,-3.2438066E-2,-2.9181197E-2,7.751623E-2,3.8637355E-1,1.4544967E-1,-3.3919863E-2,2.9502264E-1,-4.2177852E-2,-5.361581E-2,-4.1203324E-2,1.5081495E-1,-5.2197553E-2,1.2549463E-1,-2.3070654E-2,1.0804596E-1,3.478653E-1,-5.3945106E-2,9.477332E-2,2.559566E-1,1.124006E-2,-5.408853E-2,7.4617855E-2,-5.35479E-2,-4.1456845E-2,-5.4675408E-2,-5.2451637E-2,-3.821208E-2,4.8700217E-2,-4.750822E-2,-3.5547984E-3,1.2932499E-1,-1.3764274E-2,-5.256578E-2,-5.529361E-2,-5.1353544E-2,2.7629173E-1,-3.4692567E-2,9.680092E-3,-4.475981E-2],"categories":[],"categories_nodes":[],"categories_segments":[],"categories_sizes":[],"default_left":[0,0,0,0,0,0,0,0,0,0,0,0,0,0,0,0,0,0,0,0,0,0,0,0,0,0,0,0,0,0,0,0,0,0,0,0,0,0,0,0,0,0,0,0,0,0,0,0,0,0,0,0,0,0,0,0,0,0,0,0,0,0,0,0,0,0,0,0,0,0,0,0,0,0,0,0,0,0,0,0,0,0,0,0,0,0,0,0,0,0,0,0,0,0,0,0,0,0,0,0,0,0,0,0,0,0,0,0,0,0,0,0,0,0,0,0,0,0,0,0,0,0,0,0,0],"id":3,"left_children":[1,3,5,7,9,11,13,15,17,19,21,23,25,27,29,31,33,35,37,39,41,43,45,47,49,51,53,55,57,59,61,63,65,67,69,71,73,75,77,79,81,83,85,87,89,91,93,95,97,99,101,103,105,107,109,111,113,115,117,119,121,-1,123,-1,-1,-1,-1,-1,-1,-1,-1,-1,-1,-1,-1,-1,-1,-1,-1,-1,-1,-1,-1,-1,-1,-1,-1,-1,-1,-1,-1,-1,-1,-1,-1,-1,-1,-1,-1,-1,-1,-1,-1,-1,-1,-1,-1,-1,-1,-1,-1,-1,-1,-1,-1,-1,-1,-1,-1,-1,-1,-1,-1,-1,-1],"loss_changes":[2.0858148E4,2.2972926E4,5.3134766E2,3.5065452E3,1.6167289E4,6.26136E2,1.9935352E2,1.2439114E3,4.004847E3,2.382027E4,9.4269696E2,5.9121136E2,7.8980426E2,8.5703125E2,1.5195312E0,3.0984863E1,7.062583E3,2.712627E3,2.3149278E2,1.7735977E3,1.5582352E4,2.235879E3,4.41792E1,1.5207666E2,5.215425E2,5.135171E2,2.933142E1,4.241162E1,6.3834705E2,2.1127441E1,6.933594E-2,1.2196289E1,1.6712326E1,2.6747456E3,1.8109009E1,1.1075752E3,3.5355778E1,2.776748E2,2.8580627E0,1.032259E3,8.9726733E2,4.315203E3,2.5736505E2,3.6604068E2,1.5469995E2,2.0097867E2,4.2181396E0,1.3601414E3,2.3255249E1,5.726115E1,3.1376892E2,3.0886316E2,6.6919346E0,6.331759E1,5.0531006E-1,1.6806152E1,1.0591371E2,7.783684E2,4.341565E1,1.2619629E0,5.0073082E1,0E0,3.8935775E-1,0E0,0E0,0E0,0E0,0E0,0E0,0E0,0E0,0E0,0E0,0E0,0E0,0E0,0E0,0E0,0E0,0E0,0E0,0E0,0E0,0E0,0E0,0E0,0E0,0E0,0E0,0E0,0E0,0E0,0E0,0E0,0E0,0E0,0E0,0E0,0E0,0E0,0E0,0E0,0E0,0E0,0E0,0E0,0E0,0E0,0E0,0E0,0E0,0E0,0E0,0E0,0E0,0E0,0E0,0E0,0E0,0E0,0E0,0E0,0E0,0E0,0E0],"parents":[2147483647,0,0,1,1,2,2,3,3,4,4,5,5,6,6,7,7,8,8,9,9,10,10,11,11,12,12,13,13,14,14,15,15,16,16,17,17,18,18,19,19,20,20,21,21,22,22,23,23,24,24,25,25,26,26,27,27,28,28,29,29,30,30,31,31,32,32,33,33,34,34,35,35,36,36,37,37,38,38,39,39,40,40,41,41,42,42,43,43,44,44,45,45,46,46,47,47,48,48,49,49,50,50,51,51,52,52,53,53,54,54,55,55,56,56,57,57,58,58,59,59,60,60,62,62],"right_children":[2,4,6,8,10,12,14,16,18,20,22,24,26,28,30,32,34,36,38,40,42,44,46,48,50,52,54,56,58,60,62,64,66,68,70,72,74,76,78,80,82,84,86,88,90,92,94,96,98,100,102,104,106,108,110,112,114,116,118,120,122,-1,124,-1,-1,-1,-1,-1,-1,-1,-1,-1,-1,-1,-1,-1,-1,-1,-1,-1,-1,-1,-1,-1,-1,-1,-1,-1,-1,-1,-1,-1,-1,-1,-1,-1,-1,-1,-1,-1,-1,-1,-1,-1,-1,-1,-1,-1,-1,-1,-1,-1,-1,-1,-1,-1,-1,-1,-1,-1,-1,-1,-1,-1,-1],"split_conditions":[1.9E1,1.8E1,2.6E1,3.3E1,1E0,3.3E1,1E0,1.8E1,7.5E1,4.1E0,1.5E0,2.5E1,1.26E1,5.93E0,2E0,3.52E0,5E-1,1E0,3.675E1,3.4E1,3.95E1,3.3E1,2E0,5E-1,1.2E3,1.5E0,7.5E1,3.4E1,1.26E1,5.7E1,7.6E1,7.6E1,1E0,2.55E1,2E0,3.3E1,1.5E0,2.7E1,3.75E1,7E0,1.02E0,2.15E1,4.3E1,1.65E1,7.5E1,3.4E1,4E0,2.3E1,7.6E1,7.8E2,2E0,2.325E1,2.5E0,5E-1,1.5E1,4.64E0,3E1,2.75E1,5.3E1,3.34E0,5.9E1,-5.6026567E-2,0E0,-5.0736766E-2,1.2431225E-3,-3.1012615E-2,-5.260104E-2,2.9618043E-2,2.5187948E-1,-2.4217894E-2,-5.5876244E-2,1.7806785E-1,3.65081E-1,1.5462965E-2,-5.1998656E-2,-1.6037254E-2,1.4912479E-1,-1.4601651E-2,-5.399983E-2,8.081048E-2,-5.686116E-3,2.7664885E-2,2.5284392E-1,1.9873399E-1,3.7095258E-1,7.710359E-2,-3.2438066E-2,-2.9181197E-2,7.751623E-2,3.8637355E-1,1.4544967E-1,-3.3919863E-2,2.9502264E-1,-4.2177852E-2,-5.361581E-2,-4.1203324E-2,1.5081495E-1,-5.2197553E-2,1.2549463E-1,-2.3070654E-2,1.0804596E-1,3.478653E-1,-5.3945106E-2,9.477332E-2,2.559566E-1,1.124006E-2,-5.408853E-2,7.4617855E-2,-5.35479E-2,-4.1456845E-2,-5.4675408E-2,-5.2451637E-2,-3.821208E-2,4.8700217E-2,-4.750822E-2,-3.5547984E-3,1.2932499E-1,-1.3764274E-2,-5.256578E-2,-5.529361E-2,-5.1353544E-2,2.7629173E-1,-3.4692567E-2,9.680092E-3,-4.475981E-2],"split_indices":[9,9,9,8,3,8,3,2,8,1,3,9,1,1,3,1,3,3,2,7,2,7,3,3,0,3,8,7,1,7,7,7,3,2,3,7,3,2,2,7,1,2,2,2,7,7,3,2,7,0,3,2,3,3,1,1,9,2,8,1,7,0,8,0,0,0,0,0,0,0,0,0,0,0,0,0,0,0,0,0,0,0,0,0,0,0,0,0,0,0,0,0,0,0,0,0,0,0,0,0,0,0,0,0,0,0,0,0,0,0,0,0,0,0,0,0,0,0,0,0,0,0,0,0,0],"split_type":[0,0,0,0,0,0,0,0,0,0,0,0,0,0,0,0,0,0,0,0,0,0,0,0,0,0,0,0,0,0,0,0,0,0,0,0,0,0,0,0,0,0,0,0,0,0,0,0,0,0,0,0,0,0,0,0,0,0,0,0,0,0,0,0,0,0,0,0,0,0,0,0,0,0,0,0,0,0,0,0,0,0,0,0,0,0,0,0,0,0,0,0,0,0,0,0,0,0,0,0,0,0,0,0,0,0,0,0,0,0,0,0,0,0,0,0,0,0,0,0,0,0,0,0,0],"sum_hessian":[1.02526375E5,4.960498E4,5.2921395E4,2.6524268E4,2.3080713E4,1.0257202E4,4.266419E4,2.3003135E4,3.5211318E3,1.7121195E4,5.9595166E3,9.062203E3,1.1949985E3,2.1482744E4,2.1181447E4,1.4586819E4,8.416316E3,1.7407799E3,1.780352E3,7.5316255E3,9.58957E3,1.891624E3,4.0678928E3,8.739162E3,3.230414E2,6.1787305E2,5.7712555E2,1.78666E4,3.616144E3,5.5634043E3,1.5618044E4,1.2721838E4,1.8649814E3,2.1950752E3,6.221241E3,1.3160657E3,4.2471426E2,5.4558545E2,1.2347666E3,6.7388125E3,7.92813E2,8.0190283E3,1.5705416E3,1.6874948E3,2.0412927E2,3.1677258E2,3.75112E3,4.856396E3,3.8827659E3,2.0452107E2,1.18520355E2,4.7897894E2,1.388941E2,1.5907195E2,4.1805362E2,1.7218166E4,6.4843365E2,1.9827181E3,1.6334259E3,5.5330396E3,3.0364717E1,1.5612755E4,5.289338E0,1.2676584E4,4.5253227E1,1.3758156E3,4.8916583E2,9.704956E2,1.2245797E3,1.8845715E2,6.0327837E3,7.783163E2,5.377494E2,1.0167283E2,3.230414E2,4.1139294E2,1.3419246E2,1.9590141E1,1.2151764E3,1.9345264E3,4.804286E3,2.6681772E2,5.259953E2,1.9155239E3,6.1035044E3,2.5525954E2,1.3152821E3,1.2565116E3,4.309831E2,1.7063013E2,3.349914E1,2.9796603E2,1.8806536E1,3.8142004E2,3.3697002E3,4.45519E3,4.012061E2,3.8763013E3,6.4647465E0,1.6377357E2,4.0747494E1,9.442448E1,2.4095873E1,2.4977429E2,2.2920465E2,1.7631126E1,1.2126297E2,6.2884354E1,9.618759E1,5.034666E1,3.6770694E2,1.6331321E4,8.868457E2,1.4731786E2,5.011158E2,1.3225304E3,6.6018774E2,3.7515118E2,1.2582748E3,4.218149E3,1.3148903E3,5.4852395E0,2.4879478E1,1.3713099E0,3.918028E0],"tree_param":{"num_deleted":"0","num_feature":"10","num_nodes":"125","size_leaf_vector":"1"}},{"base_weights":[1.0001172E-3,-2.9898798E-1,4.16879E-1,-3.7926796E-1,1.3948571E-2,1.5387298E-1,6.181776E-1,-1.5514272E-1,-4.7981536E-1,-1.6910635E-2,4.4391513E-1,8.2178265E-2,3.297514E-1,6.421287E-1,4.4339165E-1,-6.6093594E-1,-9.6610695E-2,-5.2349865E-1,5.8140278E-2,-5.987641E-1,4.1551795E-3,5.273461E-1,-3.1896374E-1,9.334449E-2,-5.122325E-1,3.7897012E-1,5.3030614E-2,-4.6987623E-2,6.4919484E-1,4.606982E-1,-3.0459982E-1,-7.9001844E-1,-4.820876E-1,-7.555828E-2,-6.883612E-1,-4.7645035E-1,-7.5305504E-1,-5.4449886E-1,4.1709653E-1,-7.5908625E-1,-4.221557E-1,-5.087072E-2,2.0686749E-1,1.6801944E-1,6.1146396E-1,7.822422E-1,-3.825736E-1,3.606558E-2,1.8667024E-1,-6.680836E-1,8.6204894E-2,3.1172812E-1,5.15304E-1,-4.15909E-1,1.0743445E-1,2.369239E-1,-3.4092912E-1,7.1645206E-1,5.6228906E-1,4.736958E-1,-4.7870356E-1,-4.31201E-1,6.55517E-1,-7.932534E-2,-3.8188852E-2,-7.8820094E-2,-4.4533025E-2,-3.9828744E-2,-2.9901564E-3,-5.7510782E-2,-7.385651E-2,-5.3966094E-2,-2.4994884E-2,4.836948E-2,-7.645553E-2,-6.8747113E-3,-6.3815884E-2,4.4759642E-2,-5.17672E-2,-7.922084E-2,-6.579066E-2,-3.9415684E-2,-6.954477E-2,7.1957977E-3,-3.1677153E-2,6.48254E-3,2.8129367E-2,-9.494901E-3,3.982101E-2,4.5798283E-2,7.398986E-2,-1.2044542E-2,9.293479E-2,-1.1383774E-2,-5.4838E-2,4.8018466E-3,-2.8744763E-2,6.496033E-3,2.5965586E-2,-7.948229E-2,-3.976058E-2,2.137451E-2,-2.880123E-2,4.1406773E-2,2.353138E-2,4.3230053E-2,6.645244E-2,-7.099735E-2,6.143855E-2,2.3138262E-2,-6.0521264E-4,2.6939347E-2,-3.844024E-2,-5.203234E-2,7.0020813E-3,5.2452274E-2,7.3982425E-2,5.1101584E-2,7.278391E-2,5.0188075E-3,4.853713E-2,-2.406638E-2,-7.1922325E-2,-6.529716E-2,-1.2988113E-2,9.189999E-2,3.2960728E-2],"categories":[],"categories_nodes":[],"categories_segments":[],"categories_sizes":[],"default_left":[0,0,0,0,0,0,0,0,0,0,0,0,0,0,0,0,0,0,0,0,0,0,0,0,0,0,0,0,0,0,0,0,1,0,0,0,0,0,0,0,0,0,0,0,0,0,0,0,0,0,0,0,0,0,0,0,0,0,0,0,0,0,0,0,0,0,0,0,0,0,0,0,0,0,0,0,0,0,0,0,0,0,0,0,0,0,0,0,0,0,0,0,0,0,0,0,0,0,0,0,0,0,0,0,0,0,0,0,0,0,0,0,0,0,0,0,0,0,0,0,0,0,0,0,0,0,0],"id":4,"left_children":[1,3,5,7,9,11,13,15,17,19,21,23,25,27,29,31,33,35,37,39,41,43,45,47,49,51,53,55,57,59,61,63,65,67,69,71,73,75,77,79,81,83,85,87,89,91,93,95,97,99,101,103,105,107,109,111,113,115,117,119,121,123,125,-1,-1,-1,-1,-1,-1,-1,-1,-1,-1,-1,-1,-1,-1,-1,-1,-1,-1,-1,-1,-1,-1,-1,-1,-1,-1,-1,-1,-1,-1,-1,-1,-1,-1,-1,-1,-1,-1,-1,-1,-1,-1,-1,-1,-1,-1,-1,-1,-1,-1,-1,-1,-1,-1,-1,-1,-1,-1,-1,-1,-1,-1,-1,-1],"loss_changes":[3.1973973E4,3.7404531E3,5.685865E3,2.6701426E3,4.0334528E2,5.871205E2,2.5439453E2,1.0863469E3,1.9221914E3,3.4766193E2,1.2973334E2,2.196148E2,1.8363062E2,2.6054883E2,9.509204E1,8.748596E1,4.0970557E2,8.167012E2,1.3293096E3,2.7739655E1,3.0534766E2,5.5372375E1,1.440003E1,1.7357297E2,5.6962463E1,1.0478491E2,5.2021324E1,4.547619E1,3.0914062E2,8.776587E1,2.051803E1,2.6135254E0,1.7629883E1,4.6800616E2,5.9993286E0,8.988047E2,1.8336426E2,1.0217206E2,1.1002698E2,1.2154846E0,3.3514404E0,7.0320734E2,6.1766083E1,2.1195961E1,2.8969849E1,1.6153169E0,8.447338E0,7.7827705E1,1.0968497E2,1.6281647E1,6.120611E0,5.9875977E1,4.6527344E1,6.46649E1,2.5691488E1,5.697691E0,1.9769606E1,1.335166E2,1.9578564E2,3.4944946E1,5.4572334E0,9.784019E0,1.3965693E0,0E0,0E0,0E0,0E0,0E0,0E0,0E0,0E0,0E0,0E0,0E0,0E0,0E0,0E0,0E0,0E0,0E0,0E0,0E0,0E0,0E0,0E0,0E0,0E0,0E0,0E0,0E0,0E0,0E0,0E0,0E0,0E0,0E0,0E0,0E0,0E0,0E0,0E0,0E0,0E0,0E0,0E0,0E0,0E0,0E0,0E0,0E0,0E0,0E0,0E0,0E0,0E0,0E0,0E0,0E0,0E0,0E0,0E0,0E0,0E0,0E0,0E0,0E0,0E0],"parents":[2147483647,0,0,1,1,2,2,3,3,4,4,5,5,6,6,7,7,8,8,9,9,10,10,11,11,12,12,13,13,14,14,15,15,16,16,17,17,18,18,19,19,20,20,21,21,22,22,23,23,24,24,25,25,26,26,27,27,28,28,29,29,30,30,31,31,32,32,33,33,34,34,35,35,36,36,37,37,38,38,39,39,40,40,41,41,42,42,43,43,44,44,45,45,46,46,47,47,48,48,49,49,50,50,51,51,52,52,53,53,54,54,55,55,56,56,57,57,58,58,59,59,60,60,61,61,62,62],"right_children":[2,4,6,8,10,12,14,16,18,20,22,24,26,28,30,32,34,36,38,40,42,44,46,48,50,52,54,56,58,60,62,64,66,68,70,72,74,76,78,80,82,84,86,88,90,92,94,96,98,100,102,104,106,108,110,112,114,116,118,120,122,124,126,-1,-1,-1,-1,-1,-1,-1,-1,-1,-1,-1,-1,-1,-1,-1,-1,-1,-1,-1,-1,-1,-1,-1,-1,-1,-1,-1,-1,-1,-1,-1,-1,-1,-1,-1,-1,-1,-1,-1,-1,-1,-1,-1,-1,-1,-1,-1,-1,-1,-1,-1,-1,-1,-1,-1,-1,-1,-1,-1,-1,-1,-1,-1,-1],"split_conditions":[1E0,3E1,3.025E1,9E0,4.175E1,4E0,4.2E1,4E-1,1.683E1,4.5E0,6.05E1,4.1E1,4.2E1,2E0,1.725E1,2E-1,3.3E1,3.3E1,7.5E1,4E0,3.2E1,7.5E1,1.456E3,3.1E1,2E0,8.9E0,6.25E0,0E0,5E0,5.441E3,3.1E1,8.25E0,6E1,7E0,3.3E1,3.1E1,6E1,1.8E1,3.4E1,3.75E0,3.3E1,3.1E1,1.18E0,3.1E1,3.1E1,6.4E1,6.875E1,1.566E3,7.5E0,7.5E1,3.5E1,4.5E0,2.3E1,1E1,4.5E0,3.3E1,2.6E1,3E0,2.1E1,5.5E1,6.5E1,2.144E3,1.694E3,-7.932534E-2,-3.8188852E-2,-7.8820094E-2,-4.4533025E-2,-3.9828744E-2,-2.9901564E-3,-5.7510782E-2,-7.385651E-2,-5.3966094E-2,-2.4994884E-2,4.836948E-2,-7.645553E-2,-6.8747113E-3,-6.3815884E-2,4.4759642E-2,-5.17672E-2,-7.922084E-2,-6.579066E-2,-3.9415684E-2,-6.954477E-2,7.1957977E-3,-3.1677153E-2,6.48254E-3,2.8129367E-2,-9.494901E-3,3.982101E-2,4.5798283E-2,7.398986E-2,-1.2044542E-2,9.293479E-2,-1.1383774E-2,-5.4838E-2,4.8018466E-3,-2.8744763E-2,6.496033E-3,2.5965586E-2,-7.948229E-2,-3.976058E-2,2.137451E-2,-2.880123E-2,4.1406773E-2,2.353138E-2,4.3230053E-2,6.645244E-2,-7.099735E-2,6.143855E-2,2.3138262E-2,-6.0521264E-4,2.6939347E-2,-3.844024E-2,-5.203234E-2,7.0020813E-3,5.2452274E-2,7.3982425E-2,5.1101584E-2,7.278391E-2,5.0188075E-3,4.853713E-2,-2.406638E-2,-7.1922325E-2,-6.529716E-2,-1.2988113E-2,9.189999E-2,3.2960728E-2],"split_indices":[3,9,2,2,2,3,8,1,1,2,2,7,8,3,3,1,7,7,8,2,9,8,0,7,3,1,2,8,3,0,9,2,0,7,8,7,0,9,7,2,8,9,1,9,7,2,2,0,2,7,8,3,8,3,3,7,9,8,3,8,7,0,0,0,0,0,0,0,0,0,0,0,0,0,0,0,0,0,0,0,0,0,0,0,0,0,0,0,0,0,0,0,0,0,0,0,0,0,0,0,0,0,0,0,0,0,0,0,0,0,0,0,0,0,0,0,0,0,0,0,0,0,0,0,0,0,0],"split_type":[0,0,0,0,0,0,0,0,0,0,0,0,0,0,0,0,0,0,0,0,0,0,0,0,0,0,0,0,0,0,0,0,0,0,0,0,0,0,0,0,0,0,0,0,0,0,0,0,0,0,0,0,0,0,0,0,0,0,0,0,0,0,0,0,0,0,0,0,0,0,0,0,0,0,0,0,0,0,0,0,0,0,0,0,0,0,0,0,0,0,0,0,0,0,0,0,0,0,0,0,0,0,0,0,0,0,0,0,0,0,0,0,0,0,0,0,0,0,0,0,0,0,0,0,0,0,0],"sum_hessian":[2.5628448E5,1.4888719E5,1.073973E5,1.18489875E5,3.0397312E4,4.6562707E4,6.083459E4,3.6695742E4,8.1794125E4,2.8362652E4,2.0346603E3,3.3079652E4,1.3483056E4,5.3500652E4,7.3339355E3,3.8050293E3,3.2890715E4,7.56511E4,6.1430264E3,9.900242E2,2.7372629E4,1.8343575E3,2.0030266E2,3.2470523E4,6.091277E2,1.1446724E4,2.0363317E3,5.429613E2,5.295769E4,7.1684604E3,1.6547508E2,2.2080022E3,1.597027E3,3.1761867E4,1.1288485E3,6.2785984E4,1.2865117E4,2.2929521E3,3.8500742E3,5.172108E2,4.7281335E2,2.152929E4,5.843339E3,3.4853152E2,1.485826E3,1.0321456E1,1.899812E2,2.012199E4,1.2348533E4,4.831774E2,1.2595029E2,7.6680234E3,3.7787004E3,2.1099481E2,1.8253369E3,2.762915E2,2.666698E2,2.9849566E4,2.3108127E4,7.07112E3,9.734071E1,1.4668417E2,1.8790918E1,2.1897026E3,1.829962E1,1.6901723E2,1.4280098E3,3.9355198E3,2.7826346E4,3.5053732E2,7.7831116E2,4.9086E4,1.3699985E4,1.1814975E2,1.2746968E4,3.7744247E2,1.9155098E3,3.728927E3,1.2114717E2,3.8450848E2,1.3270235E2,4.3109024E2,4.172311E1,1.4727077E4,6.8022124E3,2.0097015E3,3.8336375E3,1.6295743E2,1.8557408E2,6.7899E2,8.068361E2,1.4717232E0,8.849733E0,7.313384E1,1.1684737E2,1.9405852E4,7.161389E2,4.62981E3,7.7187236E3,3.2769086E2,1.5548654E2,9.425518E1,3.1695105E1,3.2760637E3,4.3919595E3,2.4305881E3,1.3481122E3,1.643868E2,4.6608025E1,8.7195886E2,9.53378E2,2.6310828E2,1.3183223E1,1.854487E2,8.122111E1,3.2428816E3,2.6606684E4,1.7646758E4,5.461368E3,1.8985262E2,6.881267E3,4.9928047E1,4.7412663E1,8.382338E1,6.286079E1,9.384327E0,9.406592E0],"tree_param":{"num_deleted":"0","num_feature":"10","num_nodes":"127","size_leaf_vector":"1"}},{"base_weights":[9.6649746E-4,4.2683357E-1,-1.6243812E-1,1.0581125E0,3.6897293E-1,-1.8332276E-1,2.8634858E-1,1.0903227E0,-1.6757445E-1,5.377861E-1,3.0031928E-1,-8.890328E-2,-2.9203516E-1,8.978924E-1,-6.289656E-2,1.268685E0,8.299567E-1,-2.519461E-1,5.7621235E-1,5.591179E-1,1.5027136E-1,3.595084E-1,2.441214E-1,-1.7181773E-1,1.2587011E-1,-3.382189E-1,-1.596902E-1,1.0508802E0,2.8925452E-1,8.4315576E-2,-3.5935336E-1,1.27691E0,4.6620768E-1,7.9764956E-1,1.2191198E0,-7.951658E-2,-4.8487228E-1,1.0527476E0,1.8955477E-2,7.610374E-1,5.2429724E-1,-5.426966E-1,4.4322586E-1,3.502631E-1,7.8344214E-1,1.421456E-1,3.2317972E-1,-2.543726E-1,1.4915915E-1,1.9382055E-1,-2.3530254E-1,-7.3105104E-2,-3.6039162E-1,-1.8287642E-1,1.2268492E-1,3.039603E-1,1.1447657E0,5.3274382E-2,8.028746E-1,4.160815E-1,-5.4969158E-2,-3.8570842E-1,6.703887E-1,1.3192467E-1,1.118566E-1,2.5720168E-2,1.1981728E-1,8.485554E-2,6.0347516E-2,1.277069E-1,8.114089E-2,3.903276E-2,-1.8115306E-2,-5.1732767E-2,4.328217E-2,1.2603237E-1,2.3736108E-2,-3.8989116E-2,5.738418E-2,1.2949696E-1,7.324215E-2,5.8787912E-2,4.76559E-2,3.7698057E-2,-6.683972E-2,3.4852706E-2,1.1462376E-1,4.088984E-2,2.970912E-2,1.2094412E-1,6.4917475E-2,-5.011713E-2,1.6811358E-2,4.537863E-2,2.9602414E-2,-4.7478154E-2,-1.9437235E-2,4.1316997E-2,-1.8571457E-2,2.9085765E-2,1.4415185E-2,-3.0105367E-2,1.1358432E-3,-1.0686543E-2,5.2484065E-2,-4.6527002E-2,-3.151435E-2,-1.5144574E-2,-3.3555705E-2,5.4498874E-3,8.618762E-2,-1.5831027E-3,9.311588E-2,1.280285E-1,6.3900016E-2,5.8610428E-2,-1.8614773E-2,-6.334717E-2,9.507804E-2,3.2721158E-2,8.39451E-2,-1.3472239E-2,4.000138E-2,-3.945213E-2,1.7661145E-2,8.222023E-2,-2.7755965E-2],"categories":[],"categories_nodes":[],"categories_segments":[],"categories_sizes":[],"default_left":[0,0,0,0,0,0,0,0,0,0,0,0,0,0,0,0,0,0,0,0,0,0,0,0,0,0,0,0,0,0,0,0,0,0,0,0,0,0,0,0,0,0,0,0,0,0,0,0,0,0,0,0,0,0,0,0,0,0,0,0,0,0,0,0,0,0,0,0,0,0,0,0,0,0,0,0,0,0,0,0,0,0,0,0,0,0,0,0,0,0,0,0,0,0,0,0,0,0,0,0,0,0,0,0,0,0,0,0,0,0,0,0,0,0,0,0,0,0,0,0,0,0,0,0,0,0,0],"id":5,"left_children":[1,3,5,7,9,11,13,15,17,19,21,23,25,27,29,31,33,35,37,39,41,43,45,47,49,51,53,55,57,59,61,63,65,67,69,71,73,75,77,79,81,83,85,87,89,91,93,95,97,99,101,103,105,107,109,111,113,115,117,119,121,123,125,-1,-1,-1,-1,-1,-1,-1,-1,-1,-1,-1,-1,-1,-1,-1,-1,-1,-1,-1,-1,-1,-1,-1,-1,-1,-1,-1,-1,-1,-1,-1,-1,-1,-1,-1,-1,-1,-1,-1,-1,-1,-1,-1,-1,-1,-1,-1,-1,-1,-1,-1,-1,-1,-1,-1,-1,-1,-1,-1,-1,-1,-1,-1,-1],"loss_changes":[1.5824139E4,2.3028271E3,1.5403579E3,2.0917822E2,6.693013E2,1.6118389E3,1.5608809E3,2.3849658E2,8.706181E0,1.379541E2,1.3651074E2,1.496626E3,4.460796E2,2.4705371E2,2.0307326E2,1.9597656E1,2.5430054E1,4.9102926E0,3.7515721E0,1.1088086E2,1.7739194E2,7.810791E1,1.6980872E2,1.6067384E3,5.745366E2,3.1803662E2,1.2365973E2,1.4849268E2,6.480025E1,1.4371523E2,4.2158478E1,1.88208E1,4.6812024E0,1.868274E1,2.722229E0,3.508943E0,1.7791777E0,9.935198E-1,1.9399867E0,3.4585938E1,4.0703857E1,3.0279083E1,4.0469933E1,6.0904053E1,2.3582245E1,1.5381725E2,4.1954346E1,6.377307E2,1.0968285E3,9.4918335E1,6.0126755E1,8.438249E1,2.3680615E2,8.3696106E1,7.220647E1,4.7823944E1,1.2839111E2,4.700966E1,3.6366844E1,3.4324356E1,7.955645E1,7.5330048E0,5.8254414E0,0E0,0E0,0E0,0E0,0E0,0E0,0E0,0E0,0E0,0E0,0E0,0E0,0E0,0E0,0E0,0E0,0E0,0E0,0E0,0E0,0E0,0E0,0E0,0E0,0E0,0E0,0E0,0E0,0E0,0E0,0E0,0E0,0E0,0E0,0E0,0E0,0E0,0E0,0E0,0E0,0E0,0E0,0E0,0E0,0E0,0E0,0E0,0E0,0E0,0E0,0E0,0E0,0E0,0E0,0E0,0E0,0E0,0E0,0E0,0E0,0E0,0E0,0E0,0E0],"parents":[2147483647,0,0,1,1,2,2,3,3,4,4,5,5,6,6,7,7,8,8,9,9,10,10,11,11,12,12,13,13,14,14,15,15,16,16,17,17,18,18,19,19,20,20,21,21,22,22,23,23,24,24,25,25,26,26,27,27,28,28,29,29,30,30,31,31,32,32,33,33,34,34,35,35,36,36,37,37,38,38,39,39,40,40,41,41,42,42,43,43,44,44,45,45,46,46,47,47,48,48,49,49,50,50,51,51,52,52,53,53,54,54,55,55,56,56,57,57,58,58,59,59,60,60,61,61,62,62],"right_children":[2,4,6,8,10,12,14,16,18,20,22,24,26,28,30,32,34,36,38,40,42,44,46,48,50,52,54,56,58,60,62,64,66,68,70,72,74,76,78,80,82,84,86,88,90,92,94,96,98,100,102,104,106,108,110,112,114,116,118,120,122,124,126,-1,-1,-1,-1,-1,-1,-1,-1,-1,-1,-1,-1,-1,-1,-1,-1,-1,-1,-1,-1,-1,-1,-1,-1,-1,-1,-1,-1,-1,-1,-1,-1,-1,-1,-1,-1,-1,-1,-1,-1,-1,-1,-1,-1,-1,-1,-1,-1,-1,-1,-1,-1,-1,-1,-1,-1,-1,-1,-1,-1,-1,-1,-1,-1],"split_conditions":[9E0,4.5E0,5.3E1,1E1,8.1E-1,8.71E0,1E0,4E0,1.62E2,8E0,7.25E0,5E-1,5E0,7.5E1,2.7E1,6.5E0,3.5E1,2.4E1,2.8E1,4.7E-1,4.2E2,5.45E2,5.37E2,3E1,2.75E1,0E0,3.3E1,1.8E1,6.875E1,0E0,8E0,3.75E0,3.2E1,5E-1,7.6E1,6E0,2.31E0,1.8E1,1.9E1,1E-1,6.4E-1,1.2E-1,8.03E2,2.7E1,6.75E0,1.13E0,1.25E0,5.88E2,3.1E1,2.69E0,5.5E0,4.9E1,3.225E1,2.1E1,1.725E1,3.26E3,1.9E1,2.8E1,2E-1,3.33E1,7.45E1,5.441E3,3.1E1,1.3192467E-1,1.118566E-1,2.5720168E-2,1.1981728E-1,8.485554E-2,6.0347516E-2,1.277069E-1,8.114089E-2,3.903276E-2,-1.8115306E-2,-5.1732767E-2,4.328217E-2,1.2603237E-1,2.3736108E-2,-3.8989116E-2,5.738418E-2,1.2949696E-1,7.324215E-2,5.8787912E-2,4.76559E-2,3.7698057E-2,-6.683972E-2,3.4852706E-2,1.1462376E-1,4.088984E-2,2.970912E-2,1.2094412E-1,6.4917475E-2,-5.011713E-2,1.6811358E-2,4.537863E-2,2.9602414E-2,-4.7478154E-2,-1.9437235E-2,4.1316997E-2,-1.8571457E-2,2.9085765E-2,1.4415185E-2,-3.0105367E-2,1.1358432E-3,-1.0686543E-2,5.2484065E-2,-4.6527002E-2,-3.151435E-2,-1.5144574E-2,-3.3555705E-2,5.4498874E-3,8.618762E-2,-1.5831027E-3,9.311588E-2,1.280285E-1,6.3900016E-2,5.8610428E-2,-1.8614773E-2,-6.334717E-2,9.507804E-2,3.2721158E-2,8.39451E-2,-1.3472239E-2,4.000138E-2,-3.945213E-2,1.7661145E-2,8.222023E-2,-2.7755965E-2],"split_indices":[2,2,2,3,1,1,3,2,0,2,2,3,3,8,3,3,7,9,3,1,0,0,0,9,2,8,8,9,2,8,8,2,7,3,8,7,1,5,9,1,1,1,0,7,2,1,1,0,9,1,3,2,2,3,3,0,9,7,1,1,2,0,9,0,0,0,0,0,0,0,0,0,0,0,0,0,0,0,0,0,0,0,0,0,0,0,0,0,0,0,0,0,0,0,0,0,0,0,0,0,0,0,0,0,0,0,0,0,0,0,0,0,0,0,0,0,0,0,0,0,0,0,0,0,0,0,0],"split_type":[0,0,0,0,0,0,0,0,0,0,0,0,0,0,0,0,0,0,0,0,0,0,0,0,0,0,0,0,0,0,0,0,0,0,0,0,0,0,0,0,0,0,0,0,0,0,0,0,0,0,0,0,0,0,0,0,0,0,0,0,0,0,0,0,0,0,0,0,0,0,0,0,0,0,0,0,0,0,0,0,0,0,0,0,0,0,0,0,0,0,0,0,0,0,0,0,0,0,0,0,0,0,0,0,0,0,0,0,0,0,0,0,0,0,0,0,0,0,0,0,0,0,0,0,0,0,0],"sum_hessian":[2.273934E5,6.3055582E4,1.6433781E5,5.29274E3,5.776284E4,1.5703086E5,7.3069585E3,5.15732E3,1.3542056E2,1.6697744E4,4.1065098E4,8.404097E4,7.298989E4,2.6554958E3,4.6514624E3,3.058345E3,2.0989749E3,1.22218E2,1.3202564E1,1.5826111E4,8.7163226E2,1.9997643E4,2.1067453E4,6.0633332E4,2.3407637E4,5.4106926E4,1.8882965E4,2.1215056E3,5.339902E2,3.1085564E3,1.5429062E3,3.0267314E3,3.1613457E1,1.9408971E3,1.5807776E2,7.099991E1,5.1218094E1,6.6374354E0,6.5651283E0,2.3246968E3,1.3501415E4,2.5874127E2,6.128909E2,1.9572623E4,4.2502032E2,9.201463E3,1.186599E4,4.8229082E4,1.2404252E4,1.9701492E4,3.706144E3,4.176295E3,4.993063E4,1.7450438E4,1.4325281E3,2.3736354E2,1.8841421E3,3.6664206E2,1.6734808E2,9.185799E2,2.1899766E3,1.5050127E3,3.7893597E1,2.3824092E3,6.443222E2,2.5642778E1,5.970678E0,1.5350818E3,4.058153E2,1.365388E2,2.1538954E1,1.2122002E1,5.8877903E1,4.988995E1,1.3281436E0,4.8556404E0,1.781795E0,3.9511933E0,2.6139352E0,1.16002785E2,2.2086938E3,5.785062E3,7.7163525E3,3.0871746E1,2.2786954E2,5.4145087E2,7.144009E1,9.304927E3,1.0267696E4,9.993672E1,3.250836E2,3.563029E2,8.84516E3,2.039788E3,9.826202E3,1.0318284E4,3.7910797E4,6.935861E3,5.468391E3,6.6684917E3,1.3033E4,2.9259644E3,7.801799E2,3.9538782E3,2.224167E2,1.5046296E4,3.4884332E4,1.4473027E4,2.9774104E3,1.3125287E3,1.1999932E2,1.5785326E2,7.9510284E1,1.484769E3,3.9937296E2,1.132215E2,2.5342056E2,1.5317125E1,1.5203096E2,7.606781E2,1.5790181E2,1.8639514E3,3.2602512E2,1.4820831E3,2.2929459E1,3.277702E1,5.1165752E0],"tree_param":{"num_deleted":"0","num_feature":"10","num_nodes":"127","size_leaf_vector":"1"}},{"base_weights":[-1.2208057E-3,2.804906E-1,-4.221127E-1,-4.4405138E-1,5.203713E-1,-3.6835933E-1,-5.330733E-1,-4.1193798E-1,-5.3352386E-1,9.0947664E-1,-1.9254312E-1,-4.7735298E-1,-3.4474793E-1,-5.7464637E-2,-4.812242E-1,-5.067492E-1,-3.7605184E-1,-5.7461392E-2,-4.8853233E-1,2.0597613E0,6.9294584E-1,-3.2569665E-1,1.2453592E-1,-5.057498E-1,-4.6087328E-1,-4.0818447E-1,-2.954055E-1,-3.192648E-1,-5.7191994E-2,-5.5673355E-1,-4.6336544E-1,-4.9855438E-1,-3.5997218E-1,-3.6400113E-1,-5.719735E-2,2.4371564E0,7.6680386E-1,8.769739E-1,1.0368484E-2,8.0388434E-2,-5.1670617E-1,3.938247E-1,-2.568986E-1,-5.064502E-1,-2.3365691E-1,-4.1766375E-1,-4.810197E-1,-4.375981E-1,-3.6939624E-1,-1.6012633E-1,-3.2188657E-1,-4.708989E-1,-2.934614E-1,-5.686794E-2,-5.335241E-2,-4.984578E-2,-4.4934493E-2,-4.2170625E-2,-5.113743E-2,-3.517374E-2,-5.5696245E-2,-4.7941696E-2,-3.1124894E-2,2.4937509E-1,7.8208126E-2,-2.025224E-2,1.1391415E-1,-6.9271065E-3,1.0079628E-1,-5.7530332E-2,6.631962E-2,8.128664E-2,-4.0283874E-3,-5.391089E-2,-2.9016608E-2,6.6585466E-2,1.0956058E-3,-5.772203E-2,2.081203E-2,-5.0163247E-2,-5.3571917E-2,2.9993376E-2,-4.7233097E-2,-3.9886612E-2,-5.0840307E-2,-5.194644E-2,-4.6864558E-2,-4.3049213E-2,-5.18516E-2,-2.2636687E-2,-3.87054E-2,-1.96195E-2,-9.58361E-3,-2.7961848E-2,-3.6705747E-2,-3.9839186E-2,-5.0553646E-2,-3.5833128E-2,-2.1457186E-2],"categories":[],"categories_nodes":[],"categories_segments":[],"categories_sizes":[],"default_left":[0,0,0,0,0,0,0,0,0,0,0,0,0,0,0,0,0,0,0,0,0,0,0,0,0,0,0,0,0,1,0,0,0,0,0,0,0,0,0,0,0,0,0,0,0,0,0,0,0,0,0,0,0,0,0,0,0,0,0,0,0,0,0,0,0,0,0,0,0,0,0,0,0,0,0,0,0,0,0,0,0,0,0,0,0,0,0,0,0,0,0,0,0,0,0,0,0,0,0],"id":6,"left_children":[1,3,5,7,9,11,13,15,17,19,21,23,25,-1,27,29,31,-1,33,35,37,39,41,43,45,47,49,51,-1,53,55,57,59,61,-1,63,65,67,69,71,73,75,77,79,81,83,85,87,89,91,93,95,97,-1,-1,-1,-1,-1,-1,-1,-1,-1,-1,-1,-1,-1,-1,-1,-1,-1,-1,-1,-1,-1,-1,-1,-1,-1,-1,-1,-1,-1,-1,-1,-1,-1,-1,-1,-1,-1,-1,-1,-1,-1,-1,-1,-1,-1,-1],"loss_changes":[1.4824038E4,1.3017227E4,2.987959E2,5.3306396E1,1.5608498E4,8.674951E1,3.4981445E1,4.6467285E1,8.809326E0,9.064807E3,8.388584E2,2.579834E0,8.678027E1,0E0,1.0682715E2,7.900818E0,1.9423584E1,0E0,2.4249512E1,2.8116758E3,3.848163E3,1.0853636E3,6.037091E2,3.0041504E-1,3.119934E0,1.3693359E1,5.590381E1,1.0102722E1,0E0,1.7993164E-1,7.69928E-1,9.1937256E-1,1.40802E1,5.617134E0,0E0,4.1606836E2,4.7094208E2,2.9908672E3,2.4881028E3,3.957497E2,4.813965E1,3.5879608E2,3.6244952E2,4.0100098E-2,1.0964537E0,1.8792877E0,9.911499E-1,3.744995E0,1.3156067E1,5.9152527E0,2.4835815E1,7.5037384E-1,1.1383362E1,0E0,0E0,0E0,0E0,0E0,0E0,0E0,0E0,0E0,0E0,0E0,0E0,0E0,0E0,0E0,0E0,0E0,0E0,0E0,0E0,0E0,0E0,0E0,0E0,0E0,0E0,0E0,0E0,0E0,0E0,0E0,0E0,0E0,0E0,0E0,0E0,0E0,0E0,0E0,0E0,0E0,0E0,0E0,0E0,0E0,0E0],"parents":[2147483647,0,0,1,1,2,2,3,3,4,4,5,5,6,6,7,7,8,8,9,9,10,10,11,11,12,12,14,14,15,15,16,16,18,18,19,19,20,20,21,21,22,22,23,23,24,24,25,25,26,26,27,27,29,29,30,30,31,31,32,32,33,33,35,35,36,36,37,37,38,38,39,39,40,40,41,41,42,42,43,43,44,44,45,45,46,46,47,47,48,48,49,49,50,50,51,51,52,52],"right_children":[2,4,6,8,10,12,14,16,18,20,22,24,26,-1,28,30,32,-1,34,36,38,40,42,44,46,48,50,52,-1,54,56,58,60,62,-1,64,66,68,70,72,74,76,78,80,82,84,86,88,90,92,94,96,98,-1,-1,-1,-1,-1,-1,-1,-1,-1,-1,-1,-1,-1,-1,-1,-1,-1,-1,-1,-1,-1,-1,-1,-1,-1,-1,-1,-1,-1,-1,-1,-1,-1,-1,-1,-1,-1,-1,-1,-1,-1,-1,-1,-1,-1,-1],"split_conditions":[5E-1,8E0,3E1,3E1,2.075E1,2E0,3.1E1,6.4E-1,3.1E1,4.8E2,1.9E1,1.035E1,1.02E1,-5.7464637E-2,3.2E1,4E-1,7E0,-5.7461392E-2,3.2E1,1.78E0,3E1,1.8E1,3E1,4.2E1,5.5E0,1.7E1,7E0,0E0,-5.7191994E-2,1.2E2,4.75E0,1.6E1,3.3E1,7E-1,-5.719735E-2,1.2E1,9E0,9E0,3.1E1,2.425E1,7.5E1,2.8E1,3.1E1,6E0,1.5E1,1.86E1,1.7E1,4.1E1,7E0,2.1E1,2.8E1,2E0,1.6E1,-5.686794E-2,-5.335241E-2,-4.984578E-2,-4.4934493E-2,-4.2170625E-2,-5.113743E-2,-3.517374E-2,-5.5696245E-2,-4.7941696E-2,-3.1124894E-2,2.4937509E-1,7.8208126E-2,-2.025224E-2,1.1391415E-1,-6.9271065E-3,1.0079628E-1,-5.7530332E-2,6.631962E-2,8.128664E-2,-4.0283874E-3,-5.391089E-2,-2.9016608E-2,6.6585466E-2,1.0956058E-3,-5.772203E-2,2.081203E-2,-5.0163247E-2,-5.3571917E-2,2.9993376E-2,-4.7233097E-2,-3.9886612E-2,-5.0840307E-2,-5.194644E-2,-4.6864558E-2,-4.3049213E-2,-5.18516E-2,-2.2636687E-2,-3.87054E-2,-1.96195E-2,-9.58361E-3,-2.7961848E-2,-3.6705747E-2,-3.9839186E-2,-5.0553646E-2,-3.5833128E-2,-2.1457186E-2],"split_indices":[3,2,9,9,2,8,9,1,9,0,9,1,1,0,9,1,8,0,9,1,9,9,9,3,3,5,8,8,0,0,2,9,8,1,0,2,2,2,9,2,8,7,9,6,5,1,9,8,8,9,8,6,5,0,0,0,0,0,0,0,0,0,0,0,0,0,0,0,0,0,0,0,0,0,0,0,0,0,0,0,0,0,0,0,0,0,0,0,0,0,0,0,0,0,0,0,0,0,0],"split_type":[0,0,0,0,0,0,0,0,0,0,0,0,0,0,0,0,0,0,0,0,0,0,0,0,0,0,0,0,0,0,0,0,0,0,0,0,0,0,0,0,0,0,0,0,0,0,0,0,0,0,0,0,0,0,0,0,0,0,0,0,0,0,0,0,0,0,0,0,0,0,0,0,0,0,0,0,0,0,0,0,0,0,0,0,0,0,0,0,0,0,0,0,0,0,0,0,0,0,0],"sum_hessian":[1.2502146E5,7.489384E4,5.012762E4,1.862812E4,5.6265723E4,3.3771695E4,1.6355927E4,1.371216E4,4.91596E3,3.6399027E4,1.9866693E4,6.0099043E3,2.7761791E4,9.071907E3,7.2840195E3,3.7614033E3,9.950757E3,2.5632283E3,2.3527314E3,5.764983E3,3.0634045E4,1.3991222E4,5.875472E3,2.1960723E3,3.8138323E3,1.2143E4,1.561879E4,2.61637E3,4.6676494E3,1.7422498E3,2.0191536E3,1.1511042E3,8.799652E3,9.460973E2,1.4066342E3,4.4617725E3,1.3032106E3,2.4128523E4,6.50552E3,4.4759526E3,9.51527E3,3.4440068E3,2.431465E3,2.189575E3,6.4970856E0,1.2196621E3,2.5941702E3,6.9001997E3,5.242801E3,2.5580361E3,1.3060754E4,3.7797043E2,2.2383997E3,1.1347123E3,6.0753754E2,5.665554E2,1.4525981E3,1.694205E2,9.816838E2,8.449236E3,3.5041617E2,2.942417E2,6.518555E2,4.3137593E3,1.4801314E2,3.6179263E2,9.414179E2,2.9340242E3,2.11945E4,3.429199E3,3.076321E3,6.322818E2,3.843671E3,8.657722E3,8.57548E2,2.0130128E3,1.4309941E3,1.4395857E3,9.918795E2,1.8956837E3,2.938914E2,1.9286468E0,4.568439E0,1.0148257E3,2.0483636E2,6.2168964E2,1.9724805E3,6.3489688E3,5.512312E2,5.7764557E2,4.6651553E3,1.6373716E3,9.206644E2,6.7508887E3,6.3098657E3,1.26231224E2,2.517392E2,1.2264028E3,1.0119969E3],"tree_param":{"num_deleted":"0","num_feature":"10","num_nodes":"99","size_leaf_vector":"1"}},{"base_weights":[-3.146792E-3,4.1257557E-1,-4.285177E-1,-1.6467245E-1,1.0007081E0,-2.2416559E-1,-4.7886142E-1,-3.0357945E-1,6.575665E-1,1.3542321E0,-2.1304113E-1,-3.1286016E-1,4.0206283E-1,-4.0998736E-1,-5.5007184E-1,-4.8194963E-1,-6.0423138E-3,1.4574482E0,-2.864671E-1,2.472505E-1,1.9810636E0,3.3078292E-1,-4.8691306E-1,-3.621352E-1,8.706811E-1,1.0199636E0,-4.0639567E-1,-5.017966E-1,1.973568E-2,-5.342145E-1,-5.557326E-1,-4.999653E-1,-3.6140442E-1,1.2391012E0,-5.441301E-1,1.9077613E0,-3.48329E-1,2.0805624E-1,-5.3519154E-1,1.1472274E-1,1.2987624E0,2.3125782E0,3.0154908E-2,-1.4656149E-2,2.4659986E0,-1.2813964E-1,-5.1839036E-1,-4.738651E-1,-2.0342335E-1,-1.3198021E-1,1.8653518E0,1.381215E0,-4.5465875E-1,-7.464377E-2,-5.2637845E-1,-5.115924E-1,-2.469223E-1,3.2325834E-1,-4.8979783E-1,-5.389647E-1,2.5610968E-1,-5.557992E-2,-3.0429405E-1,-5.0186764E-2,5.828344E-4,-3.0656068E-2,-5.205631E-2,1.4439327E-2,1.8347402E-1,-2.3629231E-2,-5.541348E-2,1.4081948E-1,2.5390235E-1,1.4548271E-2,-5.138537E-2,6.5504394E-2,-5.4173555E-2,-5.408575E-2,-2.6836654E-2,6.478845E-2,-1.0516225E-2,-2.7768675E-2,1.693213E-1,1.447668E-1,2.5686237E-1,9.426339E-2,-2.8859166E-2,-3.226917E-2,6.0764816E-2,2.582973E-1,-2.559128E-4,-3.2897715E-2,2.2056945E-1,-4.1276038E-2,-5.303966E-2,-3.2124724E-2,-4.9291406E-2,4.4010602E-2,-5.5206306E-2,-3.4911484E-2,4.045747E-2,2.3123407E-1,-4.7259804E-2,9.064882E-2,2.329578E-1,1.0788429E-2,-5.3729076E-2,5.9922393E-2,-5.2817237E-2,-4.045186E-2,-5.4183163E-2,-5.1915E-2,-3.7427362E-2,4.3984454E-2,-4.677258E-2,8.332323E-2,-2.1849439E-2,-3.3353526E-2,-5.5034228E-2,-5.1492173E-2,-5.51289E-2,2.1478017E-1,-3.417541E-2,9.720328E-3,-4.4070523E-2],"categories":[],"categories_nodes":[],"categories_segments":[],"categories_sizes":[],"default_left":[0,0,0,0,0,0,0,0,0,0,0,0,0,0,0,0,0,0,0,0,0,0,0,0,0,0,0,0,0,0,0,0,0,0,0,0,0,0,0,0,0,0,0,0,0,0,0,0,0,0,0,0,0,0,0,0,0,0,0,0,0,0,0,0,0,0,0,0,0,0,0,0,0,0,0,0,0,0,0,0,0,0,0,0,0,0,0,0,0,0,0,0,0,0,0,0,0,0,0,0,0,0,0,0,0,0,0,0,0,0,0,0,0,0,0,0,0,0,0,0,0,0,0,0,0],"id":7,"left_children":[1,3,5,7,9,11,13,15,17,19,21,23,25,27,29,31,33,35,37,39,41,43,45,47,49,51,53,55,57,59,61,63,65,67,69,71,73,75,77,79,81,83,85,87,89,91,93,95,97,99,101,103,105,107,109,111,113,115,117,119,121,-1,123,-1,-1,-1,-1,-1,-1,-1,-1,-1,-1,-1,-1,-1,-1,-1,-1,-1,-1,-1,-1,-1,-1,-1,-1,-1,-1,-1,-1,-1,-1,-1,-1,-1,-1,-1,-1,-1,-1,-1,-1,-1,-1,-1,-1,-1,-1,-1,-1,-1,-1,-1,-1,-1,-1,-1,-1,-1,-1,-1,-1,-1,-1],"loss_changes":[1.8177557E4,1.7649387E4,5.225879E2,2.9968206E3,1.1049545E4,5.580282E2,1.997002E2,1.1912253E3,2.863896E3,1.3837195E4,8.6538763E2,5.134603E2,6.2313794E2,8.17687E2,1.5019531E0,3.0294922E1,5.6377803E3,1.6700483E3,2.1415129E2,1.0047228E3,8.234582E3,1.4356105E3,4.3570496E1,1.4970984E2,3.5128455E2,3.7716943E2,2.148433E1,4.2510254E1,5.6456305E2,2.0025757E1,7.8125E-2,1.1747559E1,1.5798325E1,1.6553628E3,1.7964478E1,5.146621E2,3.3637314E1,1.9576512E2,1.6056519E0,7.509413E2,5.022932E2,2.406371E3,5.384406E2,3.215245E2,7.827026E1,1.4743282E2,4.2857056E0,1.4252808E1,7.836904E2,2.067181E1,1.8581506E2,2.5361047E2,6.5583057E0,4.456588E1,5.283203E-1,1.687207E1,9.63431E1,6.3221893E2,1.2709412E1,1.2767334E0,3.7295895E1,0E0,3.777454E-1,0E0,0E0,0E0,0E0,0E0,0E0,0E0,0E0,0E0,0E0,0E0,0E0,0E0,0E0,0E0,0E0,0E0,0E0,0E0,0E0,0E0,0E0,0E0,0E0,0E0,0E0,0E0,0E0,0E0,0E0,0E0,0E0,0E0,0E0,0E0,0E0,0E0,0E0,0E0,0E0,0E0,0E0,0E0,0E0,0E0,0E0,0E0,0E0,0E0,0E0,0E0,0E0,0E0,0E0,0E0,0E0,0E0,0E0,0E0,0E0,0E0,0E0],"parents":[2147483647,0,0,1,1,2,2,3,3,4,4,5,5,6,6,7,7,8,8,9,9,10,10,11,11,12,12,13,13,14,14,15,15,16,16,17,17,18,18,19,19,20,20,21,21,22,22,23,23,24,24,25,25,26,26,27,27,28,28,29,29,30,30,31,31,32,32,33,33,34,34,35,35,36,36,37,37,38,38,39,39,40,40,41,41,42,42,43,43,44,44,45,45,46,46,47,47,48,48,49,49,50,50,51,51,52,52,53,53,54,54,55,55,56,56,57,57,58,58,59,59,60,60,62,62],"right_children":[2,4,6,8,10,12,14,16,18,20,22,24,26,28,30,32,34,36,38,40,42,44,46,48,50,52,54,56,58,60,62,64,66,68,70,72,74,76,78,80,82,84,86,88,90,92,94,96,98,100,102,104,106,108,110,112,114,116,118,120,122,-1,124,-1,-1,-1,-1,-1,-1,-1,-1,-1,-1,-1,-1,-1,-1,-1,-1,-1,-1,-1,-1,-1,-1,-1,-1,-1,-1,-1,-1,-1,-1,-1,-1,-1,-1,-1,-1,-1,-1,-1,-1,-1,-1,-1,-1,-1,-1,-1,-1,-1,-1,-1,-1,-1,-1,-1,-1,-1,-1,-1,-1,-1,-1],"split_conditions":[1.9E1,1.8E1,2.6E1,3.3E1,1E0,3.3E1,1E0,1.8E1,7.5E1,3.52E0,1.5E0,2.5E1,1.287E1,5.93E0,2E0,3.52E0,5E-1,1E0,3.75E1,3.4E1,3.725E1,3.3E1,2E0,4.01E0,8.9E2,1.5E0,7.5E1,3.4E1,3.8E1,5.7E1,7.6E1,7.6E1,1E0,2.425E1,2E0,3.3E1,1.5E0,5E-1,2.1E1,7E0,1.79E2,2.05E1,4.2E1,3.68E0,7.5E1,3.4E1,4E0,6E0,2.5E0,5.95E2,1.5E0,3.3E1,2.5E0,5E-1,1.5E1,4.64E0,3E1,3E1,7.5E1,3E1,5.9E1,-5.557992E-2,0E0,-5.0186764E-2,5.828344E-4,-3.0656068E-2,-5.205631E-2,1.4439327E-2,1.8347402E-1,-2.3629231E-2,-5.541348E-2,1.4081948E-1,2.5390235E-1,1.4548271E-2,-5.138537E-2,6.5504394E-2,-5.4173555E-2,-5.408575E-2,-2.6836654E-2,6.478845E-2,-1.0516225E-2,-2.7768675E-2,1.693213E-1,1.447668E-1,2.5686237E-1,9.426339E-2,-2.8859166E-2,-3.226917E-2,6.0764816E-2,2.582973E-1,-2.559128E-4,-3.2897715E-2,2.2056945E-1,-4.1276038E-2,-5.303966E-2,-3.2124724E-2,-4.9291406E-2,4.4010602E-2,-5.5206306E-2,-3.4911484E-2,4.045747E-2,2.3123407E-1,-4.7259804E-2,9.064882E-2,2.329578E-1,1.0788429E-2,-5.3729076E-2,5.9922393E-2,-5.2817237E-2,-4.045186E-2,-5.4183163E-2,-5.1915E-2,-3.7427362E-2,4.3984454E-2,-4.677258E-2,8.332323E-2,-2.1849439E-2,-3.3353526E-2,-5.5034228E-2,-5.1492173E-2,-5.51289E-2,2.1478017E-1,-3.417541E-2,9.720328E-3,-4.4070523E-2],"split_indices":[9,9,9,8,3,8,3,2,8,1,3,9,1,1,3,1,3,3,2,7,2,7,3,1,0,3,8,7,2,7,7,7,3,2,3,7,3,3,5,7,0,2,2,1,8,7,3,8,3,0,3,7,3,3,1,1,9,9,8,9,7,0,8,0,0,0,0,0,0,0,0,0,0,0,0,0,0,0,0,0,0,0,0,0,0,0,0,0,0,0,0,0,0,0,0,0,0,0,0,0,0,0,0,0,0,0,0,0,0,0,0,0,0,0,0,0,0,0,0,0,0,0,0,0,0],"split_type":[0,0,0,0,0,0,0,0,0,0,0,0,0,0,0,0,0,0,0,0,0,0,0,0,0,0,0,0,0,0,0,0,0,0,0,0,0,0,0,0,0,0,0,0,0,0,0,0,0,0,0,0,0,0,0,0,0,0,0,0,0,0,0,0,0,0,0,0,0,0,0,0,0,0,0,0,0,0,0,0,0,0,0,0,0,0,0,0,0,0,0,0,0,0,0,0,0,0,0,0,0,0,0,0,0,0,0,0,0,0,0,0,0,0,0,0,0,0,0,0,0,0,0,0,0],"sum_hessian":[1.0279119E5,5.198519E4,5.0806E4,2.6235727E4,2.5749465E4,1.0043503E4,4.0762496E4,2.244462E4,3.7911074E3,1.9941164E4,5.8083013E3,8.797927E3,1.2455759E3,2.0724602E4,2.0037895E4,1.4031983E4,8.412636E3,2.0519456E3,1.7391617E3,7.2099023E3,1.2731262E4,1.945312E3,3.8629895E3,8.446944E3,3.509824E2,7.058424E2,5.3973346E2,1.7076158E4,3.6484446E3,5.2964766E3,1.4741419E4,1.2204806E4,1.8271779E3,2.538109E3,5.8745264E3,1.6423342E3,4.096113E2,5.820571E2,1.1571046E3,6.403894E3,8.0600836E2,1.0881929E4,1.8493333E3,1.675276E3,2.7003604E2,3.1199448E2,3.5509949E3,4.9560215E3,3.490923E3,1.7522102E2,1.7576135E2,5.670022E2,1.3884021E2,1.4378647E2,3.9594702E2,1.6443176E4,6.329822E2,2.28667E3,1.3617747E3,5.265149E3,3.1327774E1,1.4736304E4,5.1149406E0,1.2159081E4,4.572373E1,1.3610916E3,4.660862E2,8.948085E2,1.6433005E3,1.8568716E2,5.6888394E3,9.1860315E2,7.2373114E2,1.0286226E2,3.0674905E2,3.6474252E2,2.1731459E2,1.1320391E3,2.5065645E1,1.869329E3,4.534565E3,1.6137158E2,6.446368E2,2.487137E3,8.394792E3,4.7825903E2,1.3710742E3,1.1209141E3,5.543619E2,2.5777487E2,1.2261172E1,2.880642E2,2.3930254E1,3.6603436E2,3.1849607E3,5.519265E2,4.404095E3,1.2265881E3,2.2643347E3,1.2498932E2,5.0231712E1,1.4756046E2,2.8200903E1,3.7916E2,1.878422E2,1.7743084E1,1.2109713E2,5.771314E1,8.6073326E1,4.7618366E1,3.4832864E2,1.5582762E4,8.6041345E2,1.5375737E2,4.7922482E2,1.1776046E3,1.1090652E3,3.821E2,9.796747E2,1.798767E3,3.4663816E3,6.9007506E0,2.4427023E1,1.3700154E0,3.7449255E0],"tree_param":{"num_deleted":"0","num_feature":"10","num_nodes":"125","size_leaf_vector":"1"}},{"base_weights":[1.5659672E-3,-2.7823883E-1,3.8408998E-1,-3.5423467E-1,1.4786217E-2,1.4343563E-1,5.675536E-1,-1.4017615E-1,-4.5108044E-1,-1.3847405E-2,4.1171017E-1,7.820286E-2,3.0290192E-1,5.898448E-1,4.047514E-1,-5.941601E-1,-8.3286166E-2,-4.926321E-1,5.449221E-2,-4.7645888E-1,9.1700535E-3,4.8781604E-1,-2.9531202E-1,8.851637E-2,-4.8190427E-1,3.484308E-1,4.5789216E-2,-5.0895546E-2,5.9637576E-1,4.191323E-1,-3.4967458E-1,-7.445702E-1,-4.2806235E-1,-6.369581E-2,-6.490776E-1,-4.1769865E-1,-6.2755084E-1,-5.1139617E-1,3.8369036E-1,-7.1509E-1,-3.3368787E-1,-4.3195654E-2,2.0268591E-1,1.5609345E-1,5.652138E-1,7.488501E-1,-3.5677013E-1,3.4508504E-2,1.7634644E-1,-6.3077474E-1,7.531728E-2,2.892409E-1,4.6823782E-1,-3.891497E-1,9.517359E-2,2.1638069E-1,-3.3027884E-1,6.5864754E-1,5.159111E-1,4.311936E-1,-4.6431282E-1,-4.777998E-1,5.9934694E-1,-7.477967E-2,-3.454129E-2,-3.9808836E-2,-7.712134E-2,-3.6989566E-2,-2.0964525E-3,-5.4146737E-2,-6.977754E-2,-7.112082E-2,-3.5661314E-2,4.5475226E-2,-6.407116E-2,-4.1517634E-3,-6.0461856E-2,4.1229572E-2,-4.7667593E-2,-7.4756704E-2,-6.16848E-2,-3.0742783E-2,-6.7006156E-2,7.470815E-3,-2.9931495E-2,7.344682E-3,2.6642693E-2,-9.722491E-3,3.7711803E-2,4.2119164E-2,6.8559445E-2,-1.0889593E-2,8.862652E-2,-1.0335942E-2,-5.1538534E-2,4.5944275E-3,-2.7630204E-2,6.440562E-3,2.4324384E-2,-7.550824E-2,-3.701771E-2,-3.50636E-2,1.7136551E-2,3.8542148E-2,2.1734016E-2,3.909653E-2,6.0720574E-2,-6.704765E-2,5.6556582E-2,2.1111852E-2,-1.126836E-3,2.46245E-2,-3.6322657E-2,-4.9756784E-2,4.7598775E-3,4.8205804E-2,6.801404E-2,4.6910014E-2,6.6710494E-2,4.648721E-2,3.0570334E-2,-2.3721421E-2,-6.951122E-2,-5.384584E-2,2.8746655E-2,8.442403E-2,2.8734243E-2],"categories":[],"categories_nodes":[],"categories_segments":[],"categories_sizes":[],"default_left":[0,0,0,0,0,0,0,0,0,0,0,0,0,0,0,0,0,0,0,0,0,0,0,0,0,0,0,0,0,0,0,0,0,0,0,0,0,0,0,0,0,0,0,0,0,0,0,0,0,0,0,0,0,0,0,0,0,0,0,0,0,0,0,0,0,0,0,0,0,0,0,0,0,0,0,0,0,0,0,0,0,0,0,0,0,0,0,0,0,0,0,0,0,0,0,0,0,0,0,0,0,0,0,0,0,0,0,0,0,0,0,0,0,0,0,0,0,0,0,0,0,0,0,0,0,0,0],"id":8,"left_children":[1,3,5,7,9,11,13,15,17,19,21,23,25,27,29,31,33,35,37,39,41,43,45,47,49,51,53,55,57,59,61,63,65,67,69,71,73,75,77,79,81,83,85,87,89,91,93,95,97,99,101,103,105,107,109,111,113,115,117,119,121,123,125,-1,-1,-1,-1,-1,-1,-1,-1,-1,-1,-1,-1,-1,-1,-1,-1,-1,-1,-1,-1,-1,-1,-1,-1,-1,-1,-1,-1,-1,-1,-1,-1,-1,-1,-1,-1,-1,-1,-1,-1,-1,-1,-1,-1,-1,-1,-1,-1,-1,-1,-1,-1,-1,-1,-1,-1,-1,-1,-1,-1,-1,-1,-1,-1],"loss_changes":[2.7316617E4,3.282414E3,4.76026E3,2.4263506E3,3.4501773E2,4.8515857E2,2.217832E2,9.416224E2,1.6929121E3,3.0150504E2,1.1005136E2,1.9126256E2,1.5848584E2,2.2519922E2,8.01178E1,1.0111194E2,3.5909906E2,7.525762E2,1.1404711E3,4.5484985E1,2.7335025E2,4.726703E1,1.3045334E1,1.5417917E2,4.9708557E1,8.143689E1,4.3813972E1,4.068189E1,2.6655664E2,7.727832E1,1.711793E1,2.4838867E0,1.9562164E1,4.0977075E2,5.304016E0,8.58166E2,3.7900684E2,9.860339E1,9.545026E1,1.1389465E0,7.227669E0,6.4111334E2,4.7305298E1,1.9650623E1,2.5632935E1,1.4391761E0,7.532757E0,7.155805E1,9.2666595E1,1.5028259E1,5.260537E0,5.3178284E1,4.0591797E1,5.6249012E1,2.2600676E1,4.911029E0,1.685758E1,1.13625E2,1.6418945E2,3.002002E1,4.9669456E0,5.8419704E0,1.049396E0,0E0,0E0,0E0,0E0,0E0,0E0,0E0,0E0,0E0,0E0,0E0,0E0,0E0,0E0,0E0,0E0,0E0,0E0,0E0,0E0,0E0,0E0,0E0,0E0,0E0,0E0,0E0,0E0,0E0,0E0,0E0,0E0,0E0,0E0,0E0,0E0,0E0,0E0,0E0,0E0,0E0,0E0,0E0,0E0,0E0,0E0,0E0,0E0,0E0,0E0,0E0,0E0,0E0,0E0,0E0,0E0,0E0,0E0,0E0,0E0,0E0,0E0,0E0,0E0],"parents":[2147483647,0,0,1,1,2,2,3,3,4,4,5,5,6,6,7,7,8,8,9,9,10,10,11,11,12,12,13,13,14,14,15,15,16,16,17,17,18,18,19,19,20,20,21,21,22,22,23,23,24,24,25,25,26,26,27,27,28,28,29,29,30,30,31,31,32,32,33,33,34,34,35,35,36,36,37,37,38,38,39,39,40,40,41,41,42,42,43,43,44,44,45,45,46,46,47,47,48,48,49,49,50,50,51,51,52,52,53,53,54,54,55,55,56,56,57,57,58,58,59,59,60,60,61,61,62,62],"right_children":[2,4,6,8,10,12,14,16,18,20,22,24,26,28,30,32,34,36,38,40,42,44,46,48,50,52,54,56,58,60,62,64,66,68,70,72,74,76,78,80,82,84,86,88,90,92,94,96,98,100,102,104,106,108,110,112,114,116,118,120,122,124,126,-1,-1,-1,-1,-1,-1,-1,-1,-1,-1,-1,-1,-1,-1,-1,-1,-1,-1,-1,-1,-1,-1,-1,-1,-1,-1,-1,-1,-1,-1,-1,-1,-1,-1,-1,-1,-1,-1,-1,-1,-1,-1,-1,-1,-1,-1,-1,-1,-1,-1,-1,-1,-1,-1,-1,-1,-1,-1,-1,-1,-1,-1,-1,-1],"split_conditions":[1E0,3E1,3.025E1,9E0,4.175E1,4E0,4.2E1,4.2E-1,1.683E1,4.75E0,6.05E1,4.1E1,4.2E1,2E0,2.1E1,2E-1,3.3E1,2.25E1,7.5E1,4E0,3.2E1,7.5E1,1.456E3,3.1E1,2E0,8.9E0,6.25E0,0E0,5E0,5.441E3,3.1E1,8.25E0,3.3E1,7E0,3.3E1,1.7E0,9.9E1,1.8E1,3.3E1,3.75E0,3.3E1,3.1E1,1.18E0,3.1E1,3.1E1,6.4E1,6.875E1,1.566E3,7.5E0,7.5E1,9E0,4.5E0,2.3E1,1E1,4.5E0,3.3E1,2.6E1,3E0,2.1E1,3.3E1,6.5E1,4.2E1,1.694E3,-7.477967E-2,-3.454129E-2,-3.9808836E-2,-7.712134E-2,-3.6989566E-2,-2.0964525E-3,-5.4146737E-2,-6.977754E-2,-7.112082E-2,-3.5661314E-2,4.5475226E-2,-6.407116E-2,-4.1517634E-3,-6.0461856E-2,4.1229572E-2,-4.7667593E-2,-7.4756704E-2,-6.16848E-2,-3.0742783E-2,-6.7006156E-2,7.470815E-3,-2.9931495E-2,7.344682E-3,2.6642693E-2,-9.722491E-3,3.7711803E-2,4.2119164E-2,6.8559445E-2,-1.0889593E-2,8.862652E-2,-1.0335942E-2,-5.1538534E-2,4.5944275E-3,-2.7630204E-2,6.440562E-3,2.4324384E-2,-7.550824E-2,-3.701771E-2,-3.50636E-2,1.7136551E-2,3.8542148E-2,2.1734016E-2,3.909653E-2,6.0720574E-2,-6.704765E-2,5.6556582E-2,2.1111852E-2,-1.126836E-3,2.46245E-2,-3.6322657E-2,-4.9756784E-2,4.7598775E-3,4.8205804E-2,6.801404E-2,4.6910014E-2,6.6710494E-2,4.648721E-2,3.0570334E-2,-2.3721421E-2,-6.951122E-2,-5.384584E-2,2.8746655E-2,8.442403E-2,2.8734243E-2],"split_indices":[3,9,2,2,2,3,8,1,1,2,2,7,8,3,3,1,7,2,8,2,9,8,0,7,3,1,2,8,3,0,9,2,8,7,8,1,0,9,7,2,7,9,1,9,7,2,2,0,2,7,2,3,8,3,3,7,9,8,3,7,7,3,0,0,0,0,0,0,0,0,0,0,0,0,0,0,0,0,0,0,0,0,0,0,0,0,0,0,0,0,0,0,0,0,0,0,0,0,0,0,0,0,0,0,0,0,0,0,0,0,0,0,0,0,0,0,0,0,0,0,0,0,0,0,0,0,0],"split_type":[0,0,0,0,0,0,0,0,0,0,0,0,0,0,0,0,0,0,0,0,0,0,0,0,0,0,0,0,0,0,0,0,0,0,0,0,0,0,0,0,0,0,0,0,0,0,0,0,0,0,0,0,0,0,0,0,0,0,0,0,0,0,0,0,0,0,0,0,0,0,0,0,0,0,0,0,0,0,0,0,0,0,0,0,0,0,0,0,0,0,0,0,0,0,0,0,0,0,0,0,0,0,0,0,0,0,0,0,0,0,0,0,0,0,0,0,0,0,0,0,0,0,0,0,0,0,0],"sum_hessian":[2.55217E5,1.473992E5,1.07817805E5,1.1704377E5,3.0355426E4,4.6640254E4,6.117755E4,3.645956E4,8.058422E4,2.8313863E4,2.0415632E3,3.3101098E4,1.3539155E4,5.380748E4,7.3700723E3,4.0590178E3,3.240054E4,7.4464234E4,6.1199863E3,1.3410645E3,2.6972799E4,1.8434402E3,1.98123E2,3.250344E4,5.976588E2,1.1502046E4,2.0371096E3,5.42847E2,5.3264633E4,7.2326475E3,1.3742474E2,2.1282732E3,1.9307446E3,3.13173E4,1.0832391E3,4.7877387E4,2.6586846E4,2.250627E3,3.8693591E3,5.0050272E2,8.4056177E2,2.1228979E4,5.74382E3,3.4931445E2,1.4941257E3,1.0391336E1,1.8773167E2,2.0127912E4,1.2375526E4,4.7154593E2,1.2611288E2,7.7008843E3,3.8011614E3,2.0701382E2,1.8300958E3,2.7755008E2,2.6529694E2,3.0022775E4,2.324186E4,7.1357383E3,9.690924E1,1.2151571E2,1.5909024E1,2.1103416E3,1.7931644E1,1.7776299E3,1.5311475E2,3.8342852E3,2.7483016E4,3.4125867E2,7.4198047E2,8.245924E3,3.963146E4,3.1900766E2,2.6267838E4,3.7283456E2,1.8777924E3,3.745355E3,1.2400435E2,3.7118594E2,1.2931677E2,7.81468E2,5.9093796E1,1.4537424E4,6.691554E3,1.897885E3,3.8459346E3,1.6302736E2,1.862871E2,6.8231274E2,8.1181305E2,1.4635271E0,8.92781E0,7.290577E1,1.148259E2,1.9414441E4,7.134706E2,4.630004E3,7.745522E3,3.1797244E2,1.5357352E2,2.2717047E1,1.0339583E2,3.2923687E3,4.4085156E3,2.445285E3,1.3558763E3,1.6012685E2,4.6886982E1,8.7547565E2,9.546201E2,2.6449698E2,1.3053084E1,1.8366878E2,8.162815E1,3.260153E3,2.6762621E4,1.7750309E4,5.4915493E3,5.6237563E3,1.5119819E3,4.986832E1,4.704092E1,1.12865814E2,8.649898E0,7.957387E0,7.9516377E0],"tree_param":{"num_deleted":"0","num_feature":"10","num_nodes":"127","size_leaf_vector":"1"}},{"base_weights":[1.9674127E-3,3.901921E-1,-1.5128879E-1,9.462312E-1,3.3819953E-1,-1.712982E-1,2.726244E-1,9.73898E-1,-1.5704584E-1,4.9184865E-1,2.7524608E-1,-8.450193E-2,-2.7278858E-1,8.130313E-1,-4.8884597E-2,1.1288838E0,7.4568594E-1,-2.3924051E-1,5.49939E-1,5.103423E-1,1.4746976E-1,3.279263E-1,2.2493365E-1,-1.6394298E-1,1.1891493E-1,-3.1813803E-1,-1.4382751E-1,9.447058E-1,2.7422184E-1,9.4173245E-2,-3.276619E-1,1.1771334E0,1.0233322E0,7.1581924E-1,1.0853181E0,-7.253585E-2,-4.679117E-1,9.8657274E-1,2.3348242E-2,7.2467434E-1,4.838331E-1,-5.13443E-1,4.091553E-1,3.1652507E-1,6.238105E-1,1.3062522E-1,2.974969E-1,-2.431437E-1,1.3899639E-1,1.8044674E-1,-2.1675268E-1,-9.857948E-2,-3.4333548E-1,-1.6592261E-1,1.21116646E-1,3.024399E-1,1.0223684E0,5.552295E-2,7.375415E-1,4.37222E-1,-4.4983193E-2,-3.5704157E-1,6.390395E-1,1.1845025E-1,4.6782967E-2,1.129555E-1,9.461799E-2,9.899836E-2,6.817326E-2,1.1647606E-1,6.869711E-2,3.6940336E-2,-1.7025724E-2,-5.003191E-2,4.20602E-2,1.17134035E-1,2.3255292E-2,-3.745007E-2,5.4643728E-2,6.833155E-2,1.1347496E-1,5.4190755E-2,4.3557245E-2,3.742015E-2,-6.419162E-2,3.1361036E-2,9.913398E-2,4.9403764E-2,3.008284E-2,1.01522736E-1,5.4338988E-2,-4.7425117E-2,1.538942E-2,2.9328575E-2,1.0459367E-1,-4.5525607E-2,-1.864529E-2,3.7989944E-2,-1.749287E-2,2.4639638E-2,1.1617387E-2,6.3972906E-3,-2.7240923E-2,-1.3547852E-2,4.1696627E-2,-4.424445E-2,-2.9289866E-2,-1.3634764E-2,-3.1147942E-2,5.8720573E-3,7.717375E-2,-2.830984E-4,8.8424936E-2,1.1398216E-1,5.7784434E-2,5.522293E-2,-1.7380703E-2,-6.1141826E-2,8.683064E-2,2.6419923E-2,6.493069E-2,-1.1972972E-2,3.731521E-2,-3.6632508E-2,1.9686207E-2,7.708629E-2,-2.940395E-2],"categories":[],"categories_nodes":[],"categories_segments":[],"categories_sizes":[],"default_left":[0,0,0,0,0,0,0,0,0,0,0,0,0,0,0,1,0,0,0,0,0,0,0,0,0,0,0,0,0,0,0,0,0,0,0,0,0,0,0,0,0,0,0,0,0,0,0,0,0,0,0,0,0,0,0,0,0,0,0,0,0,0,0,0,0,0,0,0,0,0,0,0,0,0,0,0,0,0,0,0,0,0,0,0,0,0,0,0,0,0,0,0,0,0,0,0,0,0,0,0,0,0,0,0,0,0,0,0,0,0,0,0,0,0,0,0,0,0,0,0,0,0,0,0,0,0,0],"id":9,"left_children":[1,3,5,7,9,11,13,15,17,19,21,23,25,27,29,31,33,35,37,39,41,43,45,47,49,51,53,55,57,59,61,63,65,67,69,71,73,75,77,79,81,83,85,87,89,91,93,95,97,99,101,103,105,107,109,111,113,115,117,119,121,123,125,-1,-1,-1,-1,-1,-1,-1,-1,-1,-1,-1,-1,-1,-1,-1,-1,-1,-1,-1,-1,-1,-1,-1,-1,-1,-1,-1,-1,-1,-1,-1,-1,-1,-1,-1,-1,-1,-1,-1,-1,-1,-1,-1,-1,-1,-1,-1,-1,-1,-1,-1,-1,-1,-1,-1,-1,-1,-1,-1,-1,-1,-1,-1,-1],"loss_changes":[1.3490331E4,1.8549307E3,1.3789473E3,1.6763574E2,5.6753564E2,1.3674497E3,1.2732068E3,1.8848535E2,7.981677E0,1.08549805E2,1.1027295E2,1.3522092E3,4.1846094E2,1.9367114E2,1.8329843E2,1.5020264E1,2.1213867E1,4.6059637E0,3.281714E0,9.1615234E1,1.507896E2,6.84043E1,1.4571191E2,1.4438508E3,4.8544177E2,2.928579E2,1.0901672E2,1.0923804E2,5.4495605E1,1.4503082E2,4.4495834E1,1.0839355E1,7.1849365E0,1.7974854E1,4.6838837E0,3.1542118E0,1.6828861E0,8.189411E-1,1.7737079E0,2.9406677E1,4.01438E1,2.8452606E1,3.441307E1,5.4417236E1,2.3166687E1,1.3045126E2,3.7628296E1,5.735591E2,9.4331104E2,8.415857E1,5.6907486E1,1.03765594E2,2.372666E2,7.3942474E1,5.816201E1,4.233354E1,1.01615845E2,4.186824E1,3.0960472E1,3.2000076E1,6.7615036E1,7.8538666E0,5.9254646E0,0E0,0E0,0E0,0E0,0E0,0E0,0E0,0E0,0E0,0E0,0E0,0E0,0E0,0E0,0E0,0E0,0E0,0E0,0E0,0E0,0E0,0E0,0E0,0E0,0E0,0E0,0E0,0E0,0E0,0E0,0E0,0E0,0E0,0E0,0E0,0E0,0E0,0E0,0E0,0E0,0E0,0E0,0E0,0E0,0E0,0E0,0E0,0E0,0E0,0E0,0E0,0E0,0E0,0E0,0E0,0E0,0E0,0E0,0E0,0E0,0E0,0E0,0E0,0E0],"parents":[2147483647,0,0,1,1,2,2,3,3,4,4,5,5,6,6,7,7,8,8,9,9,10,10,11,11,12,12,13,13,14,14,15,15,16,16,17,17,18,18,19,19,20,20,21,21,22,22,23,23,24,24,25,25,26,26,27,27,28,28,29,29,30,30,31,31,32,32,33,33,34,34,35,35,36,36,37,37,38,38,39,39,40,40,41,41,42,42,43,43,44,44,45,45,46,46,47,47,48,48,49,49,50,50,51,51,52,52,53,53,54,54,55,55,56,56,57,57,58,58,59,59,60,60,61,61,62,62],"right_children":[2,4,6,8,10,12,14,16,18,20,22,24,26,28,30,32,34,36,38,40,42,44,46,48,50,52,54,56,58,60,62,64,66,68,70,72,74,76,78,80,82,84,86,88,90,92,94,96,98,100,102,104,106,108,110,112,114,116,118,120,122,124,126,-1,-1,-1,-1,-1,-1,-1,-1,-1,-1,-1,-1,-1,-1,-1,-1,-1,-1,-1,-1,-1,-1,-1,-1,-1,-1,-1,-1,-1,-1,-1,-1,-1,-1,-1,-1,-1,-1,-1,-1,-1,-1,-1,-1,-1,-1,-1,-1,-1,-1,-1,-1,-1,-1,-1,-1,-1,-1,-1,-1,-1,-1,-1,-1],"split_conditions":[9E0,4.5E0,5.3E1,1E1,8.1E-1,8.71E0,1E0,4E0,1.62E2,8E0,7.25E0,5E-1,5E0,7.5E1,2.1E1,6E1,3.5E1,2.4E1,2.8E1,4.2E-1,4.2E2,5.37E2,5.37E2,3E1,2.75E1,2E0,3.3E1,1.8E1,6.875E1,0E0,8E0,6.5E0,1.2E-1,5E0,7.6E1,6E0,2.31E0,1.8E1,1.9E1,3.4E1,6.4E-1,1.2E-1,7.8E2,6E0,6.75E0,1.13E0,1.071E3,5.88E2,3.1E1,3.1E1,2E0,4.775E1,3.35E1,2.1E1,1.725E1,3.26E3,1.9E1,2.8E1,2E-1,6.5E1,7.45E1,5.441E3,3.1E1,1.1845025E-1,4.6782967E-2,1.129555E-1,9.461799E-2,9.899836E-2,6.817326E-2,1.1647606E-1,6.869711E-2,3.6940336E-2,-1.7025724E-2,-5.003191E-2,4.20602E-2,1.17134035E-1,2.3255292E-2,-3.745007E-2,5.4643728E-2,6.833155E-2,1.1347496E-1,5.4190755E-2,4.3557245E-2,3.742015E-2,-6.419162E-2,3.1361036E-2,9.913398E-2,4.9403764E-2,3.008284E-2,1.01522736E-1,5.4338988E-2,-4.7425117E-2,1.538942E-2,2.9328575E-2,1.0459367E-1,-4.5525607E-2,-1.864529E-2,3.7989944E-2,-1.749287E-2,2.4639638E-2,1.1617387E-2,6.3972906E-3,-2.7240923E-2,-1.3547852E-2,4.1696627E-2,-4.424445E-2,-2.9289866E-2,-1.3634764E-2,-3.1147942E-2,5.8720573E-3,7.717375E-2,-2.830984E-4,8.8424936E-2,1.1398216E-1,5.7784434E-2,5.522293E-2,-1.7380703E-2,-6.1141826E-2,8.683064E-2,2.6419923E-2,6.493069E-2,-1.1972972E-2,3.731521E-2,-3.6632508E-2,1.9686207E-2,7.708629E-2,-2.940395E-2],"split_indices":[2,2,2,3,1,1,3,2,0,2,2,3,3,8,3,0,8,9,3,1,0,0,0,9,2,8,8,9,2,8,8,3,1,8,8,7,1,5,9,8,1,1,0,8,2,1,0,0,9,7,8,2,2,3,3,0,9,7,1,7,2,0,9,0,0,0,0,0,0,0,0,0,0,0,0,0,0,0,0,0,0,0,0,0,0,0,0,0,0,0,0,0,0,0,0,0,0,0,0,0,0,0,0,0,0,0,0,0,0,0,0,0,0,0,0,0,0,0,0,0,0,0,0,0,0,0,0],"split_type":[0,0,0,0,0,0,0,0,0,0,0,0,0,0,0,0,0,0,0,0,0,0,0,0,0,0,0,0,0,0,0,0,0,0,0,0,0,0,0,0,0,0,0,0,0,0,0,0,0,0,0,0,0,0,0,0,0,0,0,0,0,0,0,0,0,0,0,0,0,0,0,0,0,0,0,0,0,0,0,0,0,0,0,0,0,0,0,0,0,0,0,0,0,0,0,0,0,0,0,0,0,0,0,0,0,0,0,0,0,0,0,0,0,0,0,0,0,0,0,0,0,0,0,0,0,0,0],"sum_hessian":[2.267345E5,6.4172594E4,1.625619E5,5.4859023E3,5.868669E4,1.5523514E5,7.3267627E3,5.3518125E3,1.3408961E2,1.7054742E4,4.163195E4,8.367593E4,7.155922E4,2.7324346E3,4.594328E3,3.1849006E3,2.1669119E3,1.20716606E2,1.3373014E1,1.6185095E4,8.696469E2,2.033472E4,2.1297229E4,6.0175562E4,2.3500365E4,5.294095E4,1.8618273E4,2.1952139E3,5.3722064E2,3.0366816E3,1.5576465E3,2.1787864E3,1.0061143E3,1.9946162E3,1.7229562E2,7.057997E1,5.0136635E1,6.833426E0,6.539588E0,1.778583E3,1.4406512E4,2.4639355E2,6.2325336E2,1.9582232E4,7.5248846E2,9.262203E3,1.2035024E4,4.7703992E4,1.2471572E4,1.9860217E4,3.640148E3,5.450736E3,4.749021E4,1.718546E4,1.4328129E3,2.3733775E2,1.9578761E3,3.6571396E2,1.7150665E2,8.7571796E2,2.1609639E3,1.5123154E3,4.5331097E1,2.1557205E3,2.3065983E1,4.1756848E2,5.8854584E2,2.1746529E2,1.7771509E3,1.420438E2,3.0251833E1,1.2277145E1,5.8302826E1,4.8793842E1,1.3427902E0,5.043973E0,1.7894531E0,3.875804E0,2.663784E0,1.6180573E3,1.605258E2,6.533817E3,7.8726953E3,3.0911016E1,2.1548253E2,5.367101E2,8.6543274E1,1.5884219E3,1.799381E4,1.2627406E2,6.2621436E2,3.4239056E2,8.9198125E3,1.1969071E4,6.595311E1,1.0059326E4,3.7644664E4,7.0563716E3,5.4152007E3,9.800848E3,1.0059368E4,6.022607E2,3.0378872E3,5.087357E3,3.6337888E2,1.6014241E4,3.147597E4,1.4284915E4,2.900545E3,1.3084222E3,1.2439054E2,1.5631541E2,8.102234E1,1.5474431E3,4.1043304E2,1.1507176E2,2.5064221E2,1.4831399E1,1.5667525E2,4.8350848E2,3.9220947E2,1.8338547E3,3.2710913E2,1.4877196E3,2.459581E1,3.987193E1,5.459169E0],"tree_param":{"num_deleted":"0","num_feature":"10","num_nodes":"127","size_leaf_vector":"1"}},{"base_weights":[-2.2231534E-3,2.5375342E-1,-4.11106E-1,-4.3462116E-1,4.6318612E-1,-3.5619017E-1,-5.2589214E-1,-4.0187916E-1,-5.2681226E-1,7.7432597E-1,-2.1635422E-1,-4.677386E-1,-3.3230448E-1,-5.6938536E-2,-4.720365E-1,-4.9815106E-1,-3.661233E-1,-5.694584E-2,-4.806107E-1,1.6711745E0,5.9716976E-1,-3.1384096E-1,1.5153657E-1,-4.976022E-1,-4.504038E-1,-3.9770195E-1,-2.8158855E-1,-3.067077E-1,-5.6650728E-2,-5.503415E-1,-4.5322216E-1,-4.9179995E-1,-3.4972563E-1,-3.5623068E-1,-5.665458E-2,1.9360683E0,6.420455E-1,7.426502E-1,8.57069E-3,-4.1599393E-1,7.272191E-3,8.459541E-1,2.7338624E-2,-4.983262E-1,-2.2327061E-1,-4.0630755E-1,-4.7111237E-1,-4.2778292E-1,-3.5822994E-1,-1.4641023E-1,-3.083576E-1,-4.6111923E-1,-2.8083354E-1,-5.626474E-2,-5.2667625E-2,-5.1650096E-2,-4.44457E-2,-4.1504372E-2,-5.047832E-2,-3.4142368E-2,-5.5148836E-2,-4.712406E-2,-3.0491648E-2,6.612337E-2,1.9813268E-1,-2.0810911E-2,9.266018E-2,8.710629E-2,-6.5935836E-3,-5.701312E-2,5.9158772E-2,-1.1451039E-2,-5.366835E-2,1.7941503E-2,-2.8225273E-2,-1.9095402E-2,1.3333844E-1,2.0771012E-2,-1.6730225E-2,-4.933249E-2,-5.2879483E-2,2.9095588E-2,-4.648314E-2,-3.87537E-2,-4.986496E-2,-5.11184E-2,-4.5826446E-2,-4.2044237E-2,-5.1166285E-2,-3.2552186E-2,-4.384741E-2,-1.8212056E-2,-8.324193E-3,-2.6542667E-2,-3.5447087E-2,-3.8657084E-2,-4.970403E-2,-3.4636907E-2,-2.0195713E-2],"categories":[],"categories_nodes":[],"categories_segments":[],"categories_sizes":[],"default_left":[0,0,0,0,0,0,0,0,0,0,0,0,0,0,0,0,0,0,0,0,0,0,0,0,0,0,0,0,0,1,0,0,0,0,0,0,0,0,0,0,0,0,0,0,0,0,0,0,0,0,0,0,0,0,0,0,0,0,0,0,0,0,0,0,0,0,0,0,0,0,0,0,0,0,0,0,0,0,0,0,0,0,0,0,0,0,0,0,0,0,0,0,0,0,0,0,0,0,0],"id":10,"left_children":[1,3,5,7,9,11,13,15,17,19,21,23,25,-1,27,29,31,-1,33,35,37,39,41,43,45,47,49,51,-1,53,55,57,59,61,-1,63,65,67,69,71,73,75,77,79,81,83,85,87,89,91,93,95,97,-1,-1,-1,-1,-1,-1,-1,-1,-1,-1,-1,-1,-1,-1,-1,-1,-1,-1,-1,-1,-1,-1,-1,-1,-1,-1,-1,-1,-1,-1,-1,-1,-1,-1,-1,-1,-1,-1,-1,-1,-1,-1,-1,-1,-1,-1],"loss_changes":[1.3052327E4,1.1056945E4,3.0246533E2,5.3792236E1,1.2433119E4,8.6382324E1,3.6120117E1,4.5277588E1,8.958374E0,6.4075957E3,6.62429E2,2.7398682E0,8.862402E1,0E0,1.08322266E2,8.130554E0,1.9680786E1,0E0,2.39057E1,1.8123633E3,2.8843213E3,4.7893726E2,3.3370645E2,3.0456543E-1,3.1264648E0,1.3719116E1,5.4494507E1,9.971115E0,0E0,1.8380737E-1,8.3880615E-1,8.9608765E-1,1.4091553E1,5.3110123E0,0E0,3.0393164E2,3.3001056E2,2.8043975E3,2.2529365E3,4.0297668E2,1.757218E2,2.969577E2,1.1531075E2,5.718994E-2,1.044772E0,1.8317871E0,1.0353394E0,3.8641357E0,1.3135437E1,5.6089745E0,2.4809814E1,7.753067E-1,1.1136215E1,0E0,0E0,0E0,0E0,0E0,0E0,0E0,0E0,0E0,0E0,0E0,0E0,0E0,0E0,0E0,0E0,0E0,0E0,0E0,0E0,0E0,0E0,0E0,0E0,0E0,0E0,0E0,0E0,0E0,0E0,0E0,0E0,0E0,0E0,0E0,0E0,0E0,0E0,0E0,0E0,0E0,0E0,0E0,0E0,0E0,0E0],"parents":[2147483647,0,0,1,1,2,2,3,3,4,4,5,5,6,6,7,7,8,8,9,9,10,10,11,11,12,12,14,14,15,15,16,16,18,18,19,19,20,20,21,21,22,22,23,23,24,24,25,25,26,26,27,27,29,29,30,30,31,31,32,32,33,33,35,35,36,36,37,37,38,38,39,39,40,40,41,41,42,42,43,43,44,44,45,45,46,46,47,47,48,48,49,49,50,50,51,51,52,52],"right_children":[2,4,6,8,10,12,14,16,18,20,22,24,26,-1,28,30,32,-1,34,36,38,40,42,44,46,48,50,52,-1,54,56,58,60,62,-1,64,66,68,70,72,74,76,78,80,82,84,86,88,90,92,94,96,98,-1,-1,-1,-1,-1,-1,-1,-1,-1,-1,-1,-1,-1,-1,-1,-1,-1,-1,-1,-1,-1,-1,-1,-1,-1,-1,-1,-1,-1,-1,-1,-1,-1,-1,-1,-1,-1,-1,-1,-1,-1,-1,-1,-1,-1,-1],"split_conditions":[5E-1,8E0,3E1,3E1,2.2E1,2E0,3.1E1,6.4E-1,3.1E1,4.8E2,7.5E1,1.035E1,1.02E1,-5.6938536E-2,3.2E1,4E-1,7E0,-5.694584E-2,3.2E1,1.8E0,3E1,1.9E1,7E0,4.2E1,5.5E0,1.7E1,7E0,0E0,-5.6650728E-2,1.2E2,6E0,1.6E1,3.3E1,7E-1,-5.665458E-2,1.2E-1,9E0,3.2E1,3.1E1,1.8E1,3E1,2E0,3.1E1,6E0,1.5E1,1.86E1,1.7E1,4.1E1,2E0,2.1E1,2.8E1,2E0,1.6E1,-5.626474E-2,-5.2667625E-2,-5.1650096E-2,-4.44457E-2,-4.1504372E-2,-5.047832E-2,-3.4142368E-2,-5.5148836E-2,-4.712406E-2,-3.0491648E-2,6.612337E-2,1.9813268E-1,-2.0810911E-2,9.266018E-2,8.710629E-2,-6.5935836E-3,-5.701312E-2,5.9158772E-2,-1.1451039E-2,-5.366835E-2,1.7941503E-2,-2.8225273E-2,-1.9095402E-2,1.3333844E-1,2.0771012E-2,-1.6730225E-2,-4.933249E-2,-5.2879483E-2,2.9095588E-2,-4.648314E-2,-3.87537E-2,-4.986496E-2,-5.11184E-2,-4.5826446E-2,-4.2044237E-2,-5.1166285E-2,-3.2552186E-2,-4.384741E-2,-1.8212056E-2,-8.324193E-3,-2.6542667E-2,-3.5447087E-2,-3.8657084E-2,-4.970403E-2,-3.4636907E-2,-2.0195713E-2],"split_indices":[3,2,9,9,2,8,9,1,9,0,8,1,1,0,9,1,8,0,9,1,9,9,7,3,3,5,8,8,0,0,8,9,8,1,0,1,2,8,9,9,9,7,7,6,5,1,9,8,3,9,8,6,5,0,0,0,0,0,0,0,0,0,0,0,0,0,0,0,0,0,0,0,0,0,0,0,0,0,0,0,0,0,0,0,0,0,0,0,0,0,0,0,0,0,0,0,0,0,0],"split_type":[0,0,0,0,0,0,0,0,0,0,0,0,0,0,0,0,0,0,0,0,0,0,0,0,0,0,0,0,0,0,0,0,0,0,0,0,0,0,0,0,0,0,0,0,0,0,0,0,0,0,0,0,0,0,0,0,0,0,0,0,0,0,0,0,0,0,0,0,0,0,0,0,0,0,0,0,0,0,0,0,0,0,0,0,0,0,0,0,0,0,0,0,0,0,0,0,0,0,0],"sum_hessian":[1.24704445E5,7.66924E4,4.8012047E4,1.7889887E4,5.880251E4,3.2478055E4,1.5533993E4,1.3205326E4,4.6845605E3,4.0334492E4,1.8468018E4,5.724684E3,2.675337E4,8.588465E3,6.9455283E3,3.5727744E3,9.632552E3,2.430121E3,2.2544397E3,6.651751E3,3.3682742E4,1.4599476E4,3.868542E3,2.092358E3,3.6323262E3,1.1682328E4,1.5071042E4,2.5271433E3,4.4183853E3,1.6476165E3,1.9251581E3,1.1084045E3,8.524147E3,9.2327026E2,1.3311694E3,5.2893994E3,1.3623514E3,2.7007258E4,6.6754844E3,1.1075748E4,3.523728E3,5.860422E2,3.2824998E3,2.0860356E3,6.322081E0,1.1673096E3,2.4650166E3,6.624253E3,5.0580747E3,2.492232E3,1.257881E4,3.6027545E2,2.166868E3,1.0689761E3,5.786404E2,2.271752E2,1.6979828E3,1.65131E2,9.432735E2,8.1898506E3,3.3429678E2,2.82322E2,6.409483E2,1.8187872E2,5.1075205E3,3.4171008E2,1.02064136E3,2.3305934E4,3.7013237E3,3.3501511E3,3.325333E3,3.1668584E3,7.908889E3,2.210068E3,1.3136599E3,1.8759035E2,3.9845184E2,1.7036653E3,1.5788346E3,1.806667E3,2.793687E2,1.9552747E0,4.3668065E0,9.744318E2,1.9287773E2,5.8904486E2,1.8759717E3,6.0967236E3,5.2752966E2,3.5969775E3,1.4610974E3,1.5909518E3,9.0128015E2,6.517681E3,6.061129E3,1.20974335E2,2.393011E2,1.1816704E3,9.851975E2],"tree_param":{"num_deleted":"0","num_feature":"10","num_nodes":"99","size_leaf_vector":"1"}},{"base_weights":[-5.544327E-3,3.714243E-1,-4.206804E-1,-1.6001223E-1,8.6389107E-1,-3.204891E-1,-5.266001E-1,-2.9588175E-1,5.8073723E-1,1.1351074E0,-2.032544E-1,-3.8379934E-1,1.1944693E-1,-5.54527E-2,-4.9279732E-1,-4.758994E-1,-5.9015406E-3,1.2137375E0,-2.788903E-1,2.2090699E-1,1.5817571E0,3.063397E-1,-4.7957224E-1,-4.7277814E-1,-2.3646969E-1,7.211597E-1,-3.919438E-1,-4.3405417E-1,-5.464889E-1,-4.9431512E-1,-3.5514367E-1,1.0388108E0,-5.39266E-1,1.5347732E0,-3.3839178E-1,1.8649347E-1,-5.3068036E-1,1.0299419E-1,1.1398044E0,1.7781755E0,-2.2471486E-1,-1.0878237E-2,1.9341148E0,-1.216064E-1,-5.122536E-1,-3.2801664E-1,-4.8204514E-1,4.9624357E-1,-5.441634E-1,1.1717381E0,-3.4544772E-1,-5.2645755E-1,1.683266E-1,-4.6943578E-1,4.6975663E-1,-5.4701567E-1,2.1127373E-1,-4.962707E-2,-3.4788784E-4,-3.0180363E-2,-5.1528532E-2,1.2689004E-2,1.4748041E-1,-2.3016617E-2,-5.4977395E-2,7.347407E-2,1.7601098E-1,8.336666E-3,-5.301411E-2,-2.2540936E-2,9.223616E-2,-5.365784E-2,-2.6003733E-2,6.646652E-2,-8.915517E-3,-1.714662E-2,1.5181911E-1,1.5003549E-1,2.1788287E-1,2.819E-2,-3.462719E-2,-3.0933535E-2,5.5759232E-2,2.010396E-1,-3.5112622E-4,-3.1886797E-2,1.7648737E-1,-4.0366046E-2,-5.2479904E-2,-4.7872122E-2,-1.8527849E-3,-4.8536964E-2,1.297341E-2,-3.8207136E-3,1.2002964E-1,-2.4049012E-2,-5.4950666E-2,7.098554E-2,2.2205518E-1,1.5687121E-1,-3.879018E-2,-5.311183E-2,-2.0718537E-2,8.84865E-2,-1.006558E-2,-5.1770546E-2,-2.7802993E-2,1.3472578E-1,-3.1043738E-2,-4.577153E-2,-5.4801144E-2,-3.393008E-2,5.9553124E-2],"categories":[],"categories_nodes":[],"categories_segments":[],"categories_sizes":[],"default_left":[0,0,0,0,0,0,0,0,0,0,0,0,0,0,0,0,0,0,0,0,0,0,0,0,0,0,0,0,0,0,0,0,0,0,0,0,0,0,0,0,0,0,0,0,0,0,0,0,0,0,0,0,0,0,0,0,0,0,0,0,0,0,0,0,0,0,0,0,0,0,0,0,0,0,0,0,0,0,0,0,0,0,0,0,0,0,0,0,0,0,0,0,0,0,0,0,0,0,0,0,0,0,0,0,0,0,0,0,0,0,0,0,0],"id":11,"left_children":[1,3,5,7,9,11,13,15,17,19,21,23,25,-1,27,29,31,33,35,37,39,41,43,45,47,49,51,53,55,57,59,61,63,65,67,69,71,73,75,77,79,81,83,85,87,89,91,93,95,97,99,101,103,105,107,109,111,-1,-1,-1,-1,-1,-1,-1,-1,-1,-1,-1,-1,-1,-1,-1,-1,-1,-1,-1,-1,-1,-1,-1,-1,-1,-1,-1,-1,-1,-1,-1,-1,-1,-1,-1,-1,-1,-1,-1,-1,-1,-1,-1,-1,-1,-1,-1,-1,-1,-1,-1,-1,-1,-1,-1,-1],"loss_changes":[1.6046679E4,1.40646875E4,5.1769824E2,2.601667E3,8.07317E3,6.985925E2,2.2118652E1,1.1402122E3,2.1805142E3,9.081072E3,7.961836E2,2.8731177E2,9.714015E2,0E0,3.3636963E1,2.9793701E1,4.662814E3,1.1503997E3,1.9929803E2,7.909242E2,5.3017344E3,1.026666E3,4.2825928E1,1.817871E1,1.8619741E3,6.9739734E2,1.2870999E2,1.6438385E2,2.3538818E0,1.1219482E1,1.5107346E1,1.1243152E3,1.7866821E1,3.4345654E2,3.209546E1,1.8133546E2,1.6217651E0,6.9850665E2,4.1217664E2,1.4967031E3,9.0383125E1,2.8265646E2,4.79364E1,1.151824E2,4.36438E0,3.8493233E1,2.6186035E1,9.1918085E2,9.305054E0,4.9244543E2,3.5672436E1,1.9382019E0,6.39189E1,4.550354E1,1.3316234E2,2.4743652E-1,1.1788571E0,0E0,0E0,0E0,0E0,0E0,0E0,0E0,0E0,0E0,0E0,0E0,0E0,0E0,0E0,0E0,0E0,0E0,0E0,0E0,0E0,0E0,0E0,0E0,0E0,0E0,0E0,0E0,0E0,0E0,0E0,0E0,0E0,0E0,0E0,0E0,0E0,0E0,0E0,0E0,0E0,0E0,0E0,0E0,0E0,0E0,0E0,0E0,0E0,0E0,0E0,0E0,0E0,0E0,0E0,0E0,0E0],"parents":[2147483647,0,0,1,1,2,2,3,3,4,4,5,5,6,6,7,7,8,8,9,9,10,10,11,11,12,12,14,14,15,15,16,16,17,17,18,18,19,19,20,20,21,21,22,22,23,23,24,24,25,25,26,26,27,27,28,28,29,29,30,30,31,31,32,32,33,33,34,34,35,35,36,36,37,37,38,38,39,39,40,40,41,41,42,42,43,43,44,44,45,45,46,46,47,47,48,48,49,49,50,50,51,51,52,52,53,53,54,54,55,55,56,56],"right_children":[2,4,6,8,10,12,14,16,18,20,22,24,26,-1,28,30,32,34,36,38,40,42,44,46,48,50,52,54,56,58,60,62,64,66,68,70,72,74,76,78,80,82,84,86,88,90,92,94,96,98,100,102,104,106,108,110,112,-1,-1,-1,-1,-1,-1,-1,-1,-1,-1,-1,-1,-1,-1,-1,-1,-1,-1,-1,-1,-1,-1,-1,-1,-1,-1,-1,-1,-1,-1,-1,-1,-1,-1,-1,-1,-1,-1,-1,-1,-1,-1,-1,-1,-1,-1,-1,-1,-1,-1,-1,-1,-1,-1,-1,-1],"split_conditions":[1.9E1,1.8E1,3E1,3.3E1,1E0,3.3E1,3.1E1,1.8E1,7.5E1,3.47E0,1.5E0,1.7E1,7.5E1,-5.54527E-2,5E-1,3.52E0,5E-1,1E0,3.75E1,3.4E1,4.075E1,3.3E1,2E0,4E0,1.5E0,1E0,7.6E1,3.4E1,7.6E1,7.6E1,1E0,2.425E1,2E0,2.15E1,2E0,2.425E1,2.1E1,6E0,5.7E-1,3.2E1,4.4E1,1.375E1,7.5E1,3.4E1,4E0,0E0,3.4E1,2.55E1,2.5E0,3.3E1,1.9E2,2.3E1,2.2E1,4.64E0,7.4E1,1.79E2,1.1E1,-4.962707E-2,-3.4788784E-4,-3.0180363E-2,-5.1528532E-2,1.2689004E-2,1.4748041E-1,-2.3016617E-2,-5.4977395E-2,7.347407E-2,1.7601098E-1,8.336666E-3,-5.301411E-2,-2.2540936E-2,9.223616E-2,-5.365784E-2,-2.6003733E-2,6.646652E-2,-8.915517E-3,-1.714662E-2,1.5181911E-1,1.5003549E-1,2.1788287E-1,2.819E-2,-3.462719E-2,-3.0933535E-2,5.5759232E-2,2.010396E-1,-3.5112622E-4,-3.1886797E-2,1.7648737E-1,-4.0366046E-2,-5.2479904E-2,-4.7872122E-2,-1.8527849E-3,-4.8536964E-2,1.297341E-2,-3.8207136E-3,1.2002964E-1,-2.4049012E-2,-5.4950666E-2,7.098554E-2,2.2205518E-1,1.5687121E-1,-3.879018E-2,-5.311183E-2,-2.0718537E-2,8.84865E-2,-1.006558E-2,-5.1770546E-2,-2.7802993E-2,1.3472578E-1,-3.1043738E-2,-4.577153E-2,-5.4801144E-2,-3.393008E-2,5.9553124E-2],"split_indices":[9,9,9,8,3,8,9,2,8,1,3,2,8,0,3,1,3,3,2,8,2,7,3,8,3,3,8,7,7,7,3,2,3,2,3,2,5,8,1,7,2,2,8,7,3,8,7,2,3,7,0,5,9,1,7,0,5,0,0,0,0,0,0,0,0,0,0,0,0,0,0,0,0,0,0,0,0,0,0,0,0,0,0,0,0,0,0,0,0,0,0,0,0,0,0,0,0,0,0,0,0,0,0,0,0,0,0,0,0,0,0,0,0],"split_type":[0,0,0,0,0,0,0,0,0,0,0,0,0,0,0,0,0,0,0,0,0,0,0,0,0,0,0,0,0,0,0,0,0,0,0,0,0,0,0,0,0,0,0,0,0,0,0,0,0,0,0,0,0,0,0,0,0,0,0,0,0,0,0,0,0,0,0,0,0,0,0,0,0,0,0,0,0,0,0,0,0,0,0,0,0,0,0,0,0,0,0,0,0,0,0,0,0,0,0,0,0,0,0,0,0,0,0,0,0,0,0,0,0],"sum_hessian":[1.025371E5,5.3738977E4,4.879813E4,2.5847162E4,2.7891814E4,2.507925E4,2.3718877E4,2.1841549E4,4.0056128E3,2.2239545E4,5.6522705E3,2.1924299E4,3.1549514E3,1.2979885E4,1.0738992E4,1.3475446E4,8.366103E3,2.3066575E3,1.6989553E3,7.299814E3,1.493973E4,1.9872367E3,3.6650337E3,1.366762E4,8.256679E3,1.449284E3,1.7056674E3,5.132588E3,5.6064043E3,1.1689637E4,1.785809E3,2.827287E3,5.538816E3,1.911336E3,3.9532132E2,5.965713E2,1.102384E3,6.470617E3,8.2919666E2,1.3474643E4,1.4650883E3,1.6639603E3,3.2327634E2,3.070097E2,3.358024E3,8.2449225E2,1.2843128E4,2.4416787E3,5.815E3,1.018802E3,4.3048212E2,1.3754901E3,3.301772E2,4.9396934E3,1.9289429E2,5.6027876E3,3.6170437E0,1.1643237E4,4.6399582E1,1.3417747E3,4.440343E2,9.149255E2,1.9123617E3,1.8285683E2,5.355959E3,4.2097437E2,1.4903617E3,1.2373272E2,2.715886E2,3.829233E2,2.1364796E2,1.0779108E3,2.4473316E1,1.6487383E3,4.821879E3,1.8581514E2,6.4338153E2,7.959864E3,5.5147783E3,2.832528E2,1.1818354E3,1.0914078E3,5.7255255E2,3.1099542E2,1.2280924E1,2.7869833E2,2.8311378E1,3.512039E2,3.00682E3,5.5411896E2,2.703733E2,1.2773919E4,6.92085E1,1.3885602E3,1.0531185E3,1.0134436E2,5.713656E3,7.084759E2,3.1032608E2,8.560437E0,4.2192166E2,1.3550459E3,2.0444283E1,8.949173E1,2.4068544E2,3.9434978E3,9.9619574E2,9.04436E1,1.0245069E2,6.686429E1,5.5359233E3,1.5348564E0,2.0821874E0],"tree_param":{"num_deleted":"0","num_feature":"10","num_nodes":"113","size_leaf_vector":"1"}},{"base_weights":[1.9208879E-3,-2.6121932E-1,3.521668E-1,-3.3338246E-1,1.3967329E-2,1.3223761E-1,5.2249104E-1,-1.2478257E-1,-4.2805755E-1,-1.3504567E-2,3.8392147E-1,7.3717006E-2,2.785378E-1,5.435212E-1,3.6992076E-1,-5.819844E-1,-7.483692E-2,-4.6804464E-1,4.5556944E-2,1.2011923E-2,-4.1626787E-1,6.476744E-3,5.06782E-1,8.4233984E-2,-4.758043E-1,3.206653E-1,3.9803047E-2,-5.6840356E-2,5.500598E-1,3.8156405E-1,-4.6149498E-1,-7.081772E-1,-4.15933E-1,-3.482316E-1,-3.8107965E-2,-4.243656E-1,-6.8541193E-1,-4.8040146E-1,3.4767923E-1,-6.4635515E-2,1.7088643E-1,-5.5269927E-1,-2.1857446E-1,1.1316999E-1,-4.5409867E-1,-1.929695E-1,5.32875E-1,6.424885E-2,2.8817433E-1,-6.0927254E-1,6.436576E-2,2.612021E-1,4.1337463E-1,-3.7058908E-1,8.3678074E-2,1.856251E-1,-2.9891E-1,6.084403E-1,4.7475588E-1,3.9431158E-1,-3.1567407E-1,-3.293641E-1,-7.5392926E-1,-7.115283E-2,-3.1065384E-2,-7.1198225E-2,-3.8143244E-2,-7.7160806E-3,-4.3989312E-2,-1.6110347E-3,-6.1401725E-2,-4.8656657E-2,-2.0298101E-2,4.397701E-2,-6.965339E-2,-1.2878169E-3,-5.7524055E-2,3.7295025E-2,-4.6766058E-2,-1.2401246E-2,1.4854546E-2,-1.3215198E-2,2.02747E-2,-4.6094E-2,-7.05952E-2,-1.2478827E-2,-4.590375E-2,-1.2298042E-2,3.2803804E-2,5.944399E-2,-4.9350124E-2,5.4504406E-2,-2.7389208E-2,5.4683853E-2,-2.7632037E-2,7.0880125E-3,-3.1856775E-2,3.5758805E-2,-8.307554E-3,-7.279631E-2,-3.7557308E-2,1.7476127E-2,-2.6525607E-2,3.475482E-2,1.971591E-2,3.3243425E-2,5.578185E-2,-6.542889E-2,5.240455E-2,1.1502298E-2,-2.7250797E-2,2.1979397E-2,-3.7216917E-2,-4.580297E-2,2.5026517E-3,4.448053E-2,6.283992E-2,4.3165285E-2,6.1444294E-2,6.7758065E-4,4.0494755E-2,-4.361566E-2,5.5881746E-2,-1.5897965E-2,-6.2091198E-2,-8.039166E-2,-4.808112E-2],"categories":[],"categories_nodes":[],"categories_segments":[],"categories_sizes":[],"default_left":[0,0,0,0,0,0,0,0,0,0,0,0,0,0,0,0,0,0,0,0,0,0,0,0,0,0,0,0,0,0,0,0,1,0,0,0,0,0,0,0,0,0,0,0,0,0,0,0,0,0,0,0,0,0,0,0,0,0,0,0,0,0,0,0,0,0,0,0,0,0,0,0,0,0,0,0,0,0,0,0,0,0,0,0,0,0,0,0,0,0,0,0,0,0,0,0,0,0,0,0,0,0,0,0,0,0,0,0,0,0,0,0,0,0,0,0,0,0,0,0,0,0,0,0,0,0,0],"id":12,"left_children":[1,3,5,7,9,11,13,15,17,19,21,23,25,27,29,31,33,35,37,39,41,43,45,47,49,51,53,55,57,59,61,63,65,67,69,71,73,75,77,79,81,83,85,87,89,91,93,95,97,99,101,103,105,107,109,111,113,115,117,119,121,123,125,-1,-1,-1,-1,-1,-1,-1,-1,-1,-1,-1,-1,-1,-1,-1,-1,-1,-1,-1,-1,-1,-1,-1,-1,-1,-1,-1,-1,-1,-1,-1,-1,-1,-1,-1,-1,-1,-1,-1,-1,-1,-1,-1,-1,-1,-1,-1,-1,-1,-1,-1,-1,-1,-1,-1,-1,-1,-1,-1,-1,-1,-1,-1,-1],"loss_changes":[2.3378033E4,2.8762744E3,4.0761748E3,2.2661396E3,3.05839E2,4.0660693E2,1.965625E2,8.1798663E2,1.4947656E3,2.8789484E2,9.645822E1,1.9610814E2,1.3646033E2,2.115918E2,7.2121826E1,7.362952E1,3.2429E2,6.907285E2,9.767619E2,3.2081943E2,4.4894775E1,2.5202875E1,2.875589E1,1.3566254E2,4.5981796E1,6.347705E1,3.669994E1,3.4188137E1,2.3408984E2,6.52738E1,3.7352486E0,2.4472656E0,1.5312408E1,9.500076E1,3.606972E2,8.3446875E2,1.5268506E2,9.943292E1,8.061688E1,2.2497604E2,8.280675E1,1.3552032E1,1.534914E1,2.1167164E1,4.278843E0,3.5622585E0,1.7248505E1,7.699137E1,7.658626E1,1.3903E1,4.6736345E0,3.880487E1,5.248828E1,5.0311707E1,2.0581055E1,5.6308784E0,1.5031111E1,9.778906E1,1.399419E2,2.9669434E1,1.4168498E1,3.5169663E0,4.0914536E-2,0E0,0E0,0E0,0E0,0E0,0E0,0E0,0E0,0E0,0E0,0E0,0E0,0E0,0E0,0E0,0E0,0E0,0E0,0E0,0E0,0E0,0E0,0E0,0E0,0E0,0E0,0E0,0E0,0E0,0E0,0E0,0E0,0E0,0E0,0E0,0E0,0E0,0E0,0E0,0E0,0E0,0E0,0E0,0E0,0E0,0E0,0E0,0E0,0E0,0E0,0E0,0E0,0E0,0E0,0E0,0E0,0E0,0E0,0E0,0E0,0E0,0E0,0E0,0E0],"parents":[2147483647,0,0,1,1,2,2,3,3,4,4,5,5,6,6,7,7,8,8,9,9,10,10,11,11,12,12,13,13,14,14,15,15,16,16,17,17,18,18,19,19,20,20,21,21,22,22,23,23,24,24,25,25,26,26,27,27,28,28,29,29,30,30,31,31,32,32,33,33,34,34,35,35,36,36,37,37,38,38,39,39,40,40,41,41,42,42,43,43,44,44,45,45,46,46,47,47,48,48,49,49,50,50,51,51,52,52,53,53,54,54,55,55,56,56,57,57,58,58,59,59,60,60,61,61,62,62],"right_children":[2,4,6,8,10,12,14,16,18,20,22,24,26,28,30,32,34,36,38,40,42,44,46,48,50,52,54,56,58,60,62,64,66,68,70,72,74,76,78,80,82,84,86,88,90,92,94,96,98,100,102,104,106,108,110,112,114,116,118,120,122,124,126,-1,-1,-1,-1,-1,-1,-1,-1,-1,-1,-1,-1,-1,-1,-1,-1,-1,-1,-1,-1,-1,-1,-1,-1,-1,-1,-1,-1,-1,-1,-1,-1,-1,-1,-1,-1,-1,-1,-1,-1,-1,-1,-1,-1,-1,-1,-1,-1,-1,-1,-1,-1,-1,-1,-1,-1,-1,-1,-1,-1,-1,-1,-1,-1],"split_conditions":[5E-1,3E1,3.025E1,9E0,4.125E1,4E0,4.2E1,4E-1,1.671E1,3.3E1,7.5E1,4.1E1,4.2E1,2E0,5.441E3,2E-1,7E0,3.3E1,7.5E1,3.1E1,1.7E1,6.875E1,7E0,3.2E1,2E0,2.375E1,6E0,0E0,5E0,2.1E1,1.7E1,8.25E0,6E1,0E0,3.3E1,3.1E1,6E1,1.8E1,3.4E1,3.2E1,5.25E0,4.4E1,3.1E1,3.1E1,1.638E3,9.3E-1,2E1,1.86E3,3.3E1,7.5E1,3.5E1,4.5E0,2.1E1,1E1,1.676E3,3.3E1,2.6E1,3E0,2.1E1,5.5E1,3.1E1,8.475E1,3E1,-7.115283E-2,-3.1065384E-2,-7.1198225E-2,-3.8143244E-2,-7.7160806E-3,-4.3989312E-2,-1.6110347E-3,-6.1401725E-2,-4.8656657E-2,-2.0298101E-2,4.397701E-2,-6.965339E-2,-1.2878169E-3,-5.7524055E-2,3.7295025E-2,-4.6766058E-2,-1.2401246E-2,1.4854546E-2,-1.3215198E-2,2.02747E-2,-4.6094E-2,-7.05952E-2,-1.2478827E-2,-4.590375E-2,-1.2298042E-2,3.2803804E-2,5.944399E-2,-4.9350124E-2,5.4504406E-2,-2.7389208E-2,5.4683853E-2,-2.7632037E-2,7.0880125E-3,-3.1856775E-2,3.5758805E-2,-8.307554E-3,-7.279631E-2,-3.7557308E-2,1.7476127E-2,-2.6525607E-2,3.475482E-2,1.971591E-2,3.3243425E-2,5.578185E-2,-6.542889E-2,5.240455E-2,1.1502298E-2,-2.7250797E-2,2.1979397E-2,-3.7216917E-2,-4.580297E-2,2.5026517E-3,4.448053E-2,6.283992E-2,4.3165285E-2,6.1444294E-2,6.7758065E-4,4.0494755E-2,-4.361566E-2,5.5881746E-2,-1.5897965E-2,-6.2091198E-2,-8.039166E-2,-4.808112E-2],"split_indices":[3,9,2,2,2,3,8,1,1,7,8,7,8,3,0,1,7,7,8,7,2,2,7,7,3,2,2,8,3,3,5,2,0,7,7,7,0,9,7,9,2,8,9,9,0,1,5,0,7,7,8,3,8,3,0,7,9,8,3,8,9,2,9,0,0,0,0,0,0,0,0,0,0,0,0,0,0,0,0,0,0,0,0,0,0,0,0,0,0,0,0,0,0,0,0,0,0,0,0,0,0,0,0,0,0,0,0,0,0,0,0,0,0,0,0,0,0,0,0,0,0,0,0,0,0,0,0],"split_type":[0,0,0,0,0,0,0,0,0,0,0,0,0,0,0,0,0,0,0,0,0,0,0,0,0,0,0,0,0,0,0,0,0,0,0,0,0,0,0,0,0,0,0,0,0,0,0,0,0,0,0,0,0,0,0,0,0,0,0,0,0,0,0,0,0,0,0,0,0,0,0,0,0,0,0,0,0,0,0,0,0,0,0,0,0,0,0,0,0,0,0,0,0,0,0,0,0,0,0,0,0,0,0,0,0,0,0,0,0,0,0,0,0,0,0,0,0,0,0,0,0,0,0,0,0,0,0],"sum_hessian":[2.5365547E5,1.4483842E5,1.0881705E5,1.1474757E5,3.0090857E4,4.7493453E4,6.1323594E4,3.5822137E4,7.892544E4,2.8011736E4,2.0791199E3,3.392488E4,1.3568572E4,5.389252E4,7.4310757E3,3.52684E3,3.2295297E4,7.278061E4,6.1448267E3,2.6343736E4,1.6679994E3,5.108302E2,1.5682897E3,3.3288633E4,6.362459E2,1.1533085E4,2.0354877E3,5.805404E2,5.3311977E4,7.3289805E3,1.02095406E2,2.0020742E3,1.5247659E3,3.8238328E3,2.8471465E4,6.0605203E4,1.2175405E4,2.241703E3,3.9031238E3,1.7770924E4,8.572813E3,9.8585156E2,6.8214777E2,4.1536447E2,9.5465744E1,5.614774E1,1.512142E3,3.0318854E4,2.969781E3,5.1008368E2,1.26162254E2,7.028722E3,4.5043623E3,1.9587675E2,1.839611E3,2.9014957E2,2.9039084E2,3.002644E4,2.328554E4,7.197818E3,1.3116249E2,7.178638E1,3.0309029E1,1.9845549E3,1.7519358E1,1.5709541E2,1.3676704E3,9.667379E2,2.8570947E3,2.7424959E4,1.0465046E3,4.7311273E4,1.329393E4,1.1879405E2,1.2056611E4,3.782416E2,1.8634612E3,3.7863115E3,1.1681217E2,1.3899842E4,3.8710813E3,8.152741E2,7.7575396E3,6.191477E2,3.6670392E2,4.918383E2,1.903095E2,1.98086E2,2.1727847E2,2.9473598E0,9.251839E1,4.9814606E0,5.1166275E1,1.4868096E3,2.5332315E1,2.9803404E4,5.1544934E2,2.5020095E3,4.6777155E2,3.3687686E2,1.732068E2,9.486148E1,3.1300777E1,2.991287E3,4.0374353E3,2.8888635E3,1.6154987E3,1.4892076E2,4.6955986E1,1.691439E3,1.4817203E2,2.7397275E2,1.6176825E1,1.9445792E2,9.593292E1,3.2667627E3,2.6759676E4,1.7797791E4,5.4877476E3,1.9231172E2,7.0055063E3,1.1572043E2,1.5442064E1,4.628317E1,2.5503206E1,2.3977144E1,6.3318834E0],"tree_param":{"num_deleted":"0","num_feature":"10","num_nodes":"127","size_leaf_vector":"1"}},{"base_weights":[3.089516E-3,3.5868743E-1,-1.4080954E-1,8.571672E-1,3.1164315E-1,-1.5995231E-1,2.605535E-1,8.8151586E-1,-1.4683677E-1,4.5100608E-1,2.541744E-1,-7.636218E-2,-2.5055742E-1,7.446563E-1,-3.601492E-2,1.0218455E0,6.75008E-1,-2.1671629E-1,6.273969E-1,4.376671E-1,8.4720963E-1,3.0296355E-1,2.0859586E-1,-1.5078351E-1,1.1224552E-1,-2.944728E-1,-1.2180944E-1,8.610204E-1,2.6048282E-1,9.579975E-2,-3.1135306E-1,1.0555557E0,8.952037E-1,9.9560165E-1,6.489523E-1,-5.162994E-2,-4.434322E-1,1.6406877E-2,1.1515429E-1,4.5681736E-1,1.1712736E-1,9.7727656E-1,5.6771123E-1,3.4267938E-1,2.0318049E-1,1.9729275E-1,4.8315495E-1,-2.2684444E-1,1.2797679E-1,1.6975571E-1,-2.0123382E-1,-4.9525186E-2,-3.1581795E-1,-1.4346452E-1,1.3244265E-1,-1.6485427E-1,8.9972264E-1,5.7446904E-2,6.819246E-1,3.8059136E-1,-3.728205E-2,-3.3638987E-1,5.55749E-1,1.0618442E-1,3.2541927E-2,1.04672335E-1,8.543394E-2,1.0047686E-1,2.670678E-2,1.1473345E-1,6.2995575E-2,2.2222705E-2,-2.2942612E-2,-4.744398E-2,4.0918604E-2,3.933876E-2,-4.880242E-2,5.2772034E-2,3.9695382E-2,-4.8220992E-2,3.2152116E-2,8.021458E-2,1.1011235E-1,4.8397094E-2,9.672686E-2,3.314845E-2,7.7944085E-2,-2.1780182E-2,2.4056595E-2,1.6100308E-2,2.7323354E-2,1.1302922E-1,4.5105327E-2,-4.3816935E-2,-1.6792636E-2,3.4923505E-2,-1.6769623E-2,2.5637487E-2,1.2398774E-2,7.3599084E-3,-2.5603583E-2,-7.7053695E-3,4.4707727E-2,-2.499999E-2,-3.7690204E-2,1.0150715E-2,-1.6286913E-2,7.6832767E-3,6.974804E-2,3.2271806E-2,-3.2253165E-2,3.5697613E-2,9.607736E-2,5.2320536E-2,-1.6273068E-2,-5.9114665E-2,7.98752E-2,2.1604018E-2,6.0147405E-2,-1.1041088E-2,3.5310514E-2,-3.4650207E-2,1.2362379E-2,6.87315E-2,-2.8074035E-2],"categories":[],"categories_nodes":[],"categories_segments":[],"categories_sizes":[],"default_left":[0,0,0,0,0,0,0,0,0,0,0,0,0,0,0,0,0,0,0,0,0,0,0,0,0,0,0,0,0,0,0,0,0,0,1,0,0,1,0,0,0,0,0,0,0,0,1,0,0,0,0,0,0,0,0,0,0,0,0,0,0,0,0,0,0,0,0,0,0,0,0,0,0,0,0,0,0,0,0,0,0,0,0,0,0,0,0,0,0,0,0,0,0,0,0,0,0,0,0,0,0,0,0,0,0,0,0,0,0,0,0,0,0,0,0,0,0,0,0,0,0,0,0,0,0],"id":13,"left_children":[1,3,5,7,9,11,13,15,17,19,21,23,25,27,29,31,33,35,37,39,41,43,45,47,49,51,53,55,57,59,61,63,65,67,69,71,73,75,-1,77,79,81,83,85,87,89,91,93,95,97,99,101,103,105,107,109,111,113,115,117,119,121,123,-1,-1,-1,-1,-1,-1,-1,-1,-1,-1,-1,-1,-1,-1,-1,-1,-1,-1,-1,-1,-1,-1,-1,-1,-1,-1,-1,-1,-1,-1,-1,-1,-1,-1,-1,-1,-1,-1,-1,-1,-1,-1,-1,-1,-1,-1,-1,-1,-1,-1,-1,-1,-1,-1,-1,-1,-1,-1,-1,-1,-1,-1],"loss_changes":[1.15545205E4,1.5252402E3,1.2351453E3,1.3725488E2,4.7596973E2,1.1620613E3,1.0507283E3,1.5801807E2,7.3679595E0,9.1346436E1,9.353467E1,1.1202527E3,4.1625928E2,1.5641492E2,1.6477307E2,1.2967773E1,1.7888E1,4.593738E0,3.6071467E0,1.0301782E2,1.9954803E1,8.048511E1,6.744733E1,1.2134294E3,4.071435E2,2.8703027E2,1.03134735E2,8.912732E1,4.618021E1,1.1638404E2,3.2095154E1,1.1446289E1,3.3884277E0,8.329468E-1,1.8731934E1,3.5814004E0,1.5646887E0,1.3790867E0,0E0,6.704126E1,1.162811E2,7.4372253E0,5.6064186E0,7.0826294E1,9.1172516E1,5.7568604E1,1.735347E1,5.597302E2,8.026554E2,7.561536E1,5.2749405E1,6.0210968E1,2.0293799E2,8.20582E1,4.6150497E1,6.432677E0,7.122131E1,3.7579613E1,2.657814E1,3.541443E1,5.9804432E1,6.690933E0,4.7739115E0,0E0,0E0,0E0,0E0,0E0,0E0,0E0,0E0,0E0,0E0,0E0,0E0,0E0,0E0,0E0,0E0,0E0,0E0,0E0,0E0,0E0,0E0,0E0,0E0,0E0,0E0,0E0,0E0,0E0,0E0,0E0,0E0,0E0,0E0,0E0,0E0,0E0,0E0,0E0,0E0,0E0,0E0,0E0,0E0,0E0,0E0,0E0,0E0,0E0,0E0,0E0,0E0,0E0,0E0,0E0,0E0,0E0,0E0,0E0,0E0,0E0,0E0],"parents":[2147483647,0,0,1,1,2,2,3,3,4,4,5,5,6,6,7,7,8,8,9,9,10,10,11,11,12,12,13,13,14,14,15,15,16,16,17,17,18,18,19,19,20,20,21,21,22,22,23,23,24,24,25,25,26,26,27,27,28,28,29,29,30,30,31,31,32,32,33,33,34,34,35,35,36,36,37,37,39,39,40,40,41,41,42,42,43,43,44,44,45,45,46,46,47,47,48,48,49,49,50,50,51,51,52,52,53,53,54,54,55,55,56,56,57,57,58,58,59,59,60,60,61,61,62,62],"right_children":[2,4,6,8,10,12,14,16,18,20,22,24,26,28,30,32,34,36,38,40,42,44,46,48,50,52,54,56,58,60,62,64,66,68,70,72,74,76,-1,78,80,82,84,86,88,90,92,94,96,98,100,102,104,106,108,110,112,114,116,118,120,122,124,-1,-1,-1,-1,-1,-1,-1,-1,-1,-1,-1,-1,-1,-1,-1,-1,-1,-1,-1,-1,-1,-1,-1,-1,-1,-1,-1,-1,-1,-1,-1,-1,-1,-1,-1,-1,-1,-1,-1,-1,-1,-1,-1,-1,-1,-1,-1,-1,-1,-1,-1,-1,-1,-1,-1,-1,-1,-1,-1,-1,-1,-1],"split_conditions":[9E0,4.5E0,5.3E1,1E1,8.1E-1,7.96E0,1E0,4E0,1.9E2,3.4E1,2.7E1,5E-1,5E0,7.5E1,2.6E1,3.75E0,2E-1,2.4E1,1.9E1,7.75E0,7.6E1,8E0,5.9E1,3E1,2.75E1,0E0,3.3E1,9.9E1,6.875E1,4E0,8E0,7E0,6E1,5.5E0,6E1,2.2E1,2.31E0,1.26E3,1.1515429E-1,6.1E-1,4.2E2,5.4E1,3E1,8E0,4.2E2,4E0,1.9E2,5.88E2,3.1E1,2.63E0,2E0,4.9E1,3.2E1,1.035E1,1.725E1,0E0,1.8E1,2.8E1,2E-1,7.1E1,7.45E1,2.58E0,3.1E1,1.0618442E-1,3.2541927E-2,1.04672335E-1,8.543394E-2,1.0047686E-1,2.670678E-2,1.1473345E-1,6.2995575E-2,2.2222705E-2,-2.2942612E-2,-4.744398E-2,4.0918604E-2,3.933876E-2,-4.880242E-2,5.2772034E-2,3.9695382E-2,-4.8220992E-2,3.2152116E-2,8.021458E-2,1.1011235E-1,4.8397094E-2,9.672686E-2,3.314845E-2,7.7944085E-2,-2.1780182E-2,2.4056595E-2,1.6100308E-2,2.7323354E-2,1.1302922E-1,4.5105327E-2,-4.3816935E-2,-1.6792636E-2,3.4923505E-2,-1.6769623E-2,2.5637487E-2,1.2398774E-2,7.3599084E-3,-2.5603583E-2,-7.7053695E-3,4.4707727E-2,-2.499999E-2,-3.7690204E-2,1.0150715E-2,-1.6286913E-2,7.6832767E-3,6.974804E-2,3.2271806E-2,-3.2253165E-2,3.5697613E-2,9.607736E-2,5.2320536E-2,-1.6273068E-2,-5.9114665E-2,7.98752E-2,2.1604018E-2,6.0147405E-2,-1.1041088E-2,3.5310514E-2,-3.4650207E-2,1.2362379E-2,